<?xml version="1.0"?>
<MethodSetup Method="BDT::BDTEven">
  <GeneralInfo>
    <Info name="TMVA Release" value="4.2.1 [262657]"/>
    <Info name="ROOT Release" value="6.14/04 [396804]"/>
    <Info name="Creator" value="s6nsschw"/>
    <Info name="Date" value="Wed Feb  5 18:54:10 2020"/>
    <Info name="Host" value="Linux SFT-ubuntu-1804-1 4.15.0-22-generic #24-Ubuntu SMP Wed May 16 12:15:17 UTC 2018 x86_64 x86_64 x86_64 GNU/Linux"/>
    <Info name="Dir" value="/gpfs/share/home/s6nsschw/Desktop/Master_thesis/WorkStation"/>
    <Info name="Training events" value="339386"/>
    <Info name="TrainingTime" value="2.01070226e+02"/>
    <Info name="AnalysisType" value="Classification"/>
  </GeneralInfo>
  <Options>
    <Option name="V" modified="Yes">False</Option>
    <Option name="VerbosityLevel" modified="No">Default</Option>
    <Option name="VarTransform" modified="No">None</Option>
    <Option name="H" modified="Yes">False</Option>
    <Option name="CreateMVAPdfs" modified="No">False</Option>
    <Option name="IgnoreNegWeightsInTraining" modified="Yes">True</Option>
    <Option name="NTrees" modified="Yes">800</Option>
    <Option name="MaxDepth" modified="Yes">3</Option>
    <Option name="MinNodeSize" modified="Yes">5%</Option>
    <Option name="nCuts" modified="Yes">30</Option>
    <Option name="BoostType" modified="Yes">Grad</Option>
    <Option name="AdaBoostR2Loss" modified="No">quadratic</Option>
    <Option name="UseBaggedBoost" modified="Yes">True</Option>
    <Option name="Shrinkage" modified="Yes">2.000000e-02</Option>
    <Option name="AdaBoostBeta" modified="No">5.000000e-01</Option>
    <Option name="UseRandomisedTrees" modified="No">False</Option>
    <Option name="UseNvars" modified="No">3</Option>
    <Option name="UsePoissonNvars" modified="No">True</Option>
    <Option name="BaggedSampleFraction" modified="Yes">8.000000e-01</Option>
    <Option name="UseYesNoLeaf" modified="No">True</Option>
    <Option name="NegWeightTreatment" modified="No">pray</Option>
    <Option name="Css" modified="No">1.000000e+00</Option>
    <Option name="Cts_sb" modified="No">1.000000e+00</Option>
    <Option name="Ctb_ss" modified="No">1.000000e+00</Option>
    <Option name="Cbb" modified="No">1.000000e+00</Option>
    <Option name="NodePurityLimit" modified="No">5.000000e-01</Option>
    <Option name="SeparationType" modified="No">giniindex</Option>
    <Option name="RegressionLossFunctionBDTG" modified="No">huber</Option>
    <Option name="HuberQuantile" modified="No">7.000000e-01</Option>
    <Option name="DoBoostMonitor" modified="No">False</Option>
    <Option name="UseFisherCuts" modified="No">False</Option>
    <Option name="MinLinCorrForFisher" modified="No">8.000000e-01</Option>
    <Option name="UseExclusiveVars" modified="No">False</Option>
    <Option name="DoPreselection" modified="No">False</Option>
    <Option name="SigToBkgFraction" modified="No">1.000000e+00</Option>
    <Option name="PruneMethod" modified="No">nopruning</Option>
    <Option name="PruneStrength" modified="No">0.000000e+00</Option>
    <Option name="PruningValFraction" modified="No">5.000000e-01</Option>
    <Option name="SkipNormalization" modified="No">False</Option>
    <Option name="nEventsMin" modified="No">0</Option>
    <Option name="UseBaggedGrad" modified="No">False</Option>
    <Option name="GradBaggingFraction" modified="No">8.000000e-01</Option>
    <Option name="UseNTrainEvents" modified="No">0</Option>
    <Option name="NNodesMax" modified="No">0</Option>
  </Options>
  <Variables NVar="11">
    <Variable VarIndex="0" Expression="HT_jets_noleadjet" Label="HT_jets_noleadjet" Title="HT_jets_noleadjet" Unit="" Internal="HT_jets_noleadjet" Type="F" Min="1.40407875e+05" Max="3.20784850e+06"/>
    <Variable VarIndex="1" Expression="met_met" Label="met_met" Title="met_met" Unit="" Internal="met_met" Type="F" Min="1.77956028e+01" Max="1.46589588e+06"/>
    <Variable VarIndex="2" Expression="leading_jet_pT" Label="leading_jet_pT" Title="leading_jet_pT" Unit="" Internal="leading_jet_pT" Type="F" Min="4.26715547e+04" Max="2.52383625e+06"/>
    <Variable VarIndex="3" Expression="leading_bjet_pT" Label="leading_bjet_pT" Title="leading_bjet_pT" Unit="" Internal="leading_bjet_pT" Type="F" Min="2.55565117e+04" Max="1.90687300e+06"/>
    <Variable VarIndex="4" Expression="lowest_jet_pT" Label="lowest_jet_pT" Title="lowest_jet_pT" Unit="" Internal="lowest_jet_pT" Type="F" Min="2.50000371e+04" Max="2.35256609e+05"/>
    <Variable VarIndex="5" Expression="lep_0_pt" Label="lep_0_pt" Title="lep_0_pt" Unit="" Internal="lep_0_pt" Type="F" Min="2.81872207e+04" Max="2.17837800e+06"/>
    <Variable VarIndex="6" Expression="jet_sum_mv2c10_Continuous" Label="jet_sum_mv2c10_Continuous" Title="jet_sum_mv2c10_Continuous" Unit="" Internal="jet_sum_mv2c10_Continuous" Type="F" Min="1.00000000e+01" Max="4.20000000e+01"/>
    <Variable VarIndex="7" Expression="deltaR_lb_max" Label="deltaR_lb_max" Title="deltaR_lb_max" Unit="" Internal="deltaR_lb_max" Type="F" Min="6.53834045e-01" Max="5.72735357e+00"/>
    <Variable VarIndex="8" Expression="deltaR_ll_min" Label="deltaR_ll_min" Title="deltaR_ll_min" Unit="" Internal="deltaR_ll_min" Type="F" Min="8.89684830e-04" Max="5.68092155e+00"/>
    <Variable VarIndex="9" Expression="deltaR_bj_min" Label="deltaR_bj_min" Title="deltaR_bj_min" Unit="" Internal="deltaR_bj_min" Type="F" Min="3.63274664e-01" Max="3.07309508e+00"/>
    <Variable VarIndex="10" Expression="deltaR_ll_sum" Label="deltaR_ll_sum" Title="deltaR_ll_sum" Unit="" Internal="deltaR_ll_sum" Type="F" Min="8.89684830e-04" Max="2.55414886e+01"/>
  </Variables>
  <Spectators NSpec="0"/>
  <Classes NClass="2">
    <Class Name="Signal" Index="0"/>
    <Class Name="Background" Index="1"/>
  </Classes>
  <Transformations NTransformations="0"/>
  <MVAPdfs/>
  <Weights NTrees="800" AnalysisType="1">
    <BinaryTree type="DecisionTree" boostWeight="1.0000000000000000e+00" itree="0">
      <Node pos="s" depth="0" NCoef="0" IVar="6" Cut="1.6193548202514648e+01" cType="1" res="1.7179576680064201e-03" rms="4.9999704957008362e-01" purity="5.0171798467636108e-01" nType="0">
        <Node pos="l" depth="1" NCoef="0" IVar="6" Cut="1.5032258033752441e+01" cType="1" res="-2.2571800649166107e-01" rms="4.4615173339843750e-01" purity="2.7428197860717773e-01" nType="0">
          <Node pos="l" depth="2" NCoef="0" IVar="1" Cut="8.2960234375000000e+04" cType="1" res="-2.6514467597007751e-01" rms="4.2390835285186768e-01" purity="2.3485530912876129e-01" nType="0">
            <Node pos="l" depth="3" NCoef="0" IVar="-1" Cut="0.0000000000000000e+00" cType="1" res="-1.3140890747308731e-02" rms="3.7692588567733765e-01" purity="1.7147772014141083e-01" nType="-99"/>
            <Node pos="r" depth="3" NCoef="0" IVar="-1" Cut="0.0000000000000000e+00" cType="1" res="-8.4003396332263947e-03" rms="4.5375812053680420e-01" purity="2.8999152779579163e-01" nType="-99"/>
          </Node>
          <Node pos="r" depth="2" NCoef="0" IVar="-1" Cut="0.0000000000000000e+00" cType="1" res="-1.7682560719549656e-03" rms="4.9804195761680603e-01" purity="4.5579361915588379e-01" nType="-99"/>
        </Node>
        <Node pos="r" depth="1" NCoef="0" IVar="6" Cut="1.8612903594970703e+01" cType="1" res="2.9171842336654663e-01" rms="4.0607926249504089e-01" purity="7.9171842336654663e-01" nType="0">
          <Node pos="l" depth="2" NCoef="0" IVar="1" Cut="9.4416046875000000e+04" cType="1" res="1.5142670273780823e-01" rms="4.7651857137680054e-01" purity="6.5142667293548584e-01" nType="0">
            <Node pos="l" depth="3" NCoef="0" IVar="-1" Cut="0.0000000000000000e+00" cType="1" res="3.2797844614833593e-03" rms="4.9323105812072754e-01" purity="5.8199459314346313e-01" nType="-99"/>
            <Node pos="r" depth="3" NCoef="0" IVar="-1" Cut="0.0000000000000000e+00" cType="1" res="8.4321061149239540e-03" rms="4.5338973402976990e-01" purity="7.1080267429351807e-01" nType="-99"/>
          </Node>
          <Node pos="r" depth="2" NCoef="0" IVar="6" Cut="2.2709676742553711e+01" cType="1" res="3.7342604994773865e-01" rms="3.3249506354331970e-01" purity="8.7342607975006104e-01" nType="0">
            <Node pos="l" depth="3" NCoef="0" IVar="-1" Cut="0.0000000000000000e+00" cType="1" res="1.3658184558153152e-02" rms="3.6525163054466248e-01" purity="8.4145462512969971e-01" nType="-99"/>
            <Node pos="r" depth="3" NCoef="0" IVar="-1" Cut="0.0000000000000000e+00" cType="1" res="1.8300188705325127e-02" rms="2.0171625912189484e-01" purity="9.5750468969345093e-01" nType="-99"/>
          </Node>
        </Node>
      </Node>
    </BinaryTree>
    <BinaryTree type="DecisionTree" boostWeight="1.0000000000000000e+00" itree="1">
      <Node pos="s" depth="0" NCoef="0" IVar="6" Cut="1.6193548202514648e+01" cType="1" res="6.6011131275445223e-04" rms="4.9686884880065918e-01" purity="5.0066137313842773e-01" nType="0">
        <Node pos="l" depth="1" NCoef="0" IVar="6" Cut="1.4064516067504883e+01" cType="1" res="-2.2275148332118988e-01" rms="4.4490623474121094e-01" purity="2.7272352576255798e-01" nType="0">
          <Node pos="l" depth="2" NCoef="0" IVar="1" Cut="6.7293046875000000e+04" cType="1" res="-2.9853886365890503e-01" rms="3.9692431688308716e-01" purity="1.9614045321941376e-01" nType="0">
            <Node pos="l" depth="3" NCoef="0" IVar="-1" Cut="0.0000000000000000e+00" cType="1" res="-1.4569478109478951e-02" rms="3.3548289537429810e-01" purity="1.2925586104393005e-01" nType="-99"/>
            <Node pos="r" depth="3" NCoef="0" IVar="-1" Cut="0.0000000000000000e+00" cType="1" res="-1.0393019765615463e-02" rms="4.2433920502662659e-01" purity="2.3561377823352814e-01" nType="-99"/>
          </Node>
          <Node pos="r" depth="2" NCoef="0" IVar="1" Cut="8.2818804687500000e+04" cType="1" res="-1.1897014081478119e-01" rms="4.8437419533729553e-01" purity="3.7759447097778320e-01" nType="0">
            <Node pos="l" depth="3" NCoef="0" IVar="-1" Cut="0.0000000000000000e+00" cType="1" res="-8.5512921214103699e-03" rms="4.4959849119186401e-01" purity="2.8198754787445068e-01" nType="-99"/>
            <Node pos="r" depth="3" NCoef="0" IVar="-1" Cut="0.0000000000000000e+00" cType="1" res="-1.7196332337334752e-03" rms="4.9767231941223145e-01" purity="4.5423042774200439e-01" nType="-99"/>
          </Node>
        </Node>
        <Node pos="r" depth="1" NCoef="0" IVar="6" Cut="1.8612903594970703e+01" cType="1" res="2.8852054476737976e-01" rms="4.0343269705772400e-01" purity="7.9435372352600098e-01" nType="0">
          <Node pos="l" depth="2" NCoef="0" IVar="1" Cut="9.5439453125000000e+04" cType="1" res="1.4472241699695587e-01" rms="4.7750887274742126e-01" purity="6.4772576093673706e-01" nType="0">
            <Node pos="l" depth="3" NCoef="0" IVar="-1" Cut="0.0000000000000000e+00" cType="1" res="3.2467690762132406e-03" rms="4.9307620525360107e-01" purity="5.8283686637878418e-01" nType="-99"/>
            <Node pos="r" depth="3" NCoef="0" IVar="-1" Cut="0.0000000000000000e+00" cType="1" res="8.0990716814994812e-03" rms="4.5528459548950195e-01" purity="7.0667833089828491e-01" nType="-99"/>
          </Node>
          <Node pos="r" depth="2" NCoef="0" IVar="6" Cut="2.1225807189941406e+01" cType="1" res="3.7214332818984985e-01" rms="3.2525622844696045e-01" purity="8.7962222099304199e-01" nType="0">
            <Node pos="l" depth="3" NCoef="0" IVar="-1" Cut="0.0000000000000000e+00" cType="1" res="1.3244092464447021e-02" rms="3.6857074499130249e-01" purity="8.3786922693252563e-01" nType="-99"/>
            <Node pos="r" depth="3" NCoef="0" IVar="-1" Cut="0.0000000000000000e+00" cType="1" res="1.7240116372704506e-02" rms="2.3870964348316193e-01" purity="9.3928700685501099e-01" nType="-99"/>
          </Node>
        </Node>
      </Node>
    </BinaryTree>
    <BinaryTree type="DecisionTree" boostWeight="1.0000000000000000e+00" itree="2">
      <Node pos="s" depth="0" NCoef="0" IVar="6" Cut="1.6193548202514648e+01" cType="1" res="-2.8165073599666357e-03" rms="4.9382159113883972e-01" purity="4.9721994996070862e-01" nType="0">
        <Node pos="l" depth="1" NCoef="0" IVar="6" Cut="1.4064516067504883e+01" cType="1" res="-2.2022996842861176e-01" rms="4.4342359900474548e-01" purity="2.7082973718643188e-01" nType="0">
          <Node pos="l" depth="2" NCoef="0" IVar="1" Cut="1.3322304687500000e+05" cType="1" res="-2.9473239183425903e-01" rms="3.9520153403282166e-01" purity="1.9402658939361572e-01" nType="0">
            <Node pos="l" depth="3" NCoef="0" IVar="-1" Cut="0.0000000000000000e+00" cType="1" res="-1.2939485721290112e-02" rms="3.7077051401138306e-01" purity="1.6473194956779480e-01" nType="-99"/>
            <Node pos="r" depth="3" NCoef="0" IVar="-1" Cut="0.0000000000000000e+00" cType="1" res="-8.9064557105302811e-03" rms="4.4292894005775452e-01" purity="2.6802164316177368e-01" nType="-99"/>
          </Node>
          <Node pos="r" depth="2" NCoef="0" IVar="1" Cut="1.0160565625000000e+05" cType="1" res="-1.1738430708646774e-01" rms="4.8395255208015442e-01" purity="3.7685137987136841e-01" nType="0">
            <Node pos="l" depth="3" NCoef="0" IVar="-1" Cut="0.0000000000000000e+00" cType="1" res="-7.3438840918242931e-03" rms="4.6155890822410583e-01" purity="3.0892211198806763e-01" nType="-99"/>
            <Node pos="r" depth="3" NCoef="0" IVar="-1" Cut="0.0000000000000000e+00" cType="1" res="-1.4214107068255544e-03" rms="4.9828588962554932e-01" purity="4.6088743209838867e-01" nType="-99"/>
          </Node>
        </Node>
        <Node pos="r" depth="1" NCoef="0" IVar="6" Cut="1.8612903594970703e+01" cType="1" res="2.7598661184310913e-01" rms="4.0753632783889771e-01" purity="7.8753441572189331e-01" nType="0">
          <Node pos="l" depth="2" NCoef="0" IVar="1" Cut="9.4416046875000000e+04" cType="1" res="1.3172422349452972e-01" rms="4.8033326864242554e-01" purity="6.3761979341506958e-01" nType="0">
            <Node pos="l" depth="3" NCoef="0" IVar="-1" Cut="0.0000000000000000e+00" cType="1" res="2.4009216576814651e-03" rms="4.9597901105880737e-01" purity="5.6328368186950684e-01" nType="-99"/>
            <Node pos="r" depth="3" NCoef="0" IVar="-1" Cut="0.0000000000000000e+00" cType="1" res="7.8244954347610474e-03" rms="4.5658415555953979e-01" purity="7.0379817485809326e-01" nType="-99"/>
          </Node>
          <Node pos="r" depth="2" NCoef="0" IVar="6" Cut="2.1225807189941406e+01" cType="1" res="3.6167454719543457e-01" rms="3.2861974835395813e-01" purity="8.7657970190048218e-01" nType="0">
            <Node pos="l" depth="3" NCoef="0" IVar="-1" Cut="0.0000000000000000e+00" cType="1" res="1.2807023711502552e-02" rms="3.7262564897537231e-01" purity="8.3339184522628784e-01" nType="-99"/>
            <Node pos="r" depth="3" NCoef="0" IVar="-1" Cut="0.0000000000000000e+00" cType="1" res="1.6905961558222771e-02" rms="2.3892015218734741e-01" purity="9.3917477130889893e-01" nType="-99"/>
          </Node>
        </Node>
      </Node>
    </BinaryTree>
    <BinaryTree type="DecisionTree" boostWeight="1.0000000000000000e+00" itree="3">
      <Node pos="s" depth="0" NCoef="0" IVar="6" Cut="1.7225807189941406e+01" cType="1" res="2.4675943423062563e-03" rms="4.9092197418212891e-01" purity="5.0258427858352661e-01" nType="0">
        <Node pos="l" depth="1" NCoef="0" IVar="6" Cut="1.5193548202514648e+01" cType="1" res="-1.7723120748996735e-01" rms="4.6080654859542847e-01" purity="3.1241396069526672e-01" nType="0">
          <Node pos="l" depth="2" NCoef="0" IVar="6" Cut="1.4032258033752441e+01" cType="1" res="-2.4790959060192108e-01" rms="4.2450201511383057e-01" purity="2.3715509474277496e-01" nType="0">
            <Node pos="l" depth="3" NCoef="0" IVar="-1" Cut="0.0000000000000000e+00" cType="1" res="-1.1302798986434937e-02" rms="4.0019974112510681e-01" purity="2.0070648193359375e-01" nType="-99"/>
            <Node pos="r" depth="3" NCoef="0" IVar="-1" Cut="0.0000000000000000e+00" cType="1" res="-6.7231832072138786e-03" rms="4.6662023663520813e-01" purity="3.2201212644577026e-01" nType="-99"/>
          </Node>
          <Node pos="r" depth="2" NCoef="0" IVar="1" Cut="1.0463580468750000e+05" cType="1" res="-2.8069659601897001e-03" rms="4.9890834093093872e-01" purity="4.9814209342002869e-01" nType="0">
            <Node pos="l" depth="3" NCoef="0" IVar="-1" Cut="0.0000000000000000e+00" cType="1" res="-2.5995478499680758e-03" rms="4.9509295821189880e-01" purity="4.3336501717567444e-01" nType="-99"/>
            <Node pos="r" depth="3" NCoef="0" IVar="-1" Cut="0.0000000000000000e+00" cType="1" res="2.8923172503709793e-03" rms="4.9313583970069885e-01" purity="5.7638883590698242e-01" nType="-99"/>
          </Node>
        </Node>
        <Node pos="r" depth="1" NCoef="0" IVar="6" Cut="1.8774192810058594e+01" cType="1" res="3.2813829183578491e-01" rms="3.5827970504760742e-01" purity="8.4723269939422607e-01" nType="0">
          <Node pos="l" depth="2" NCoef="0" IVar="-1" Cut="0.0000000000000000e+00" cType="1" res="8.5608912631869316e-03" rms="4.4711947441101074e-01" purity="7.2250258922576904e-01" nType="-99"/>
          <Node pos="r" depth="2" NCoef="0" IVar="6" Cut="2.1225807189941406e+01" cType="1" res="3.6133635044097900e-01" rms="3.2042104005813599e-01" purity="8.8349467515945435e-01" nType="0">
            <Node pos="l" depth="3" NCoef="0" IVar="-1" Cut="0.0000000000000000e+00" cType="1" res="1.3045601546764374e-02" rms="3.6145552992820740e-01" purity="8.4547054767608643e-01" nType="-99"/>
            <Node pos="r" depth="3" NCoef="0" IVar="-1" Cut="0.0000000000000000e+00" cType="1" res="1.6531711444258690e-02" rms="2.4164876341819763e-01" purity="9.3767523765563965e-01" nType="-99"/>
          </Node>
        </Node>
      </Node>
    </BinaryTree>
    <BinaryTree type="DecisionTree" boostWeight="1.0000000000000000e+00" itree="4">
      <Node pos="s" depth="0" NCoef="0" IVar="6" Cut="1.6193548202514648e+01" cType="1" res="-5.5135018192231655e-04" rms="4.8815104365348816e-01" purity="4.9963721632957458e-01" nType="0">
        <Node pos="l" depth="1" NCoef="0" IVar="6" Cut="1.5032258033752441e+01" cType="1" res="-2.0913495123386383e-01" rms="4.4378650188446045e-01" purity="2.7346378564834595e-01" nType="0">
          <Node pos="l" depth="2" NCoef="0" IVar="1" Cut="1.0765735156250000e+05" cType="1" res="-2.4684058129787445e-01" rms="4.2192229628562927e-01" purity="2.3324520885944366e-01" nType="0">
            <Node pos="l" depth="3" NCoef="0" IVar="-1" Cut="0.0000000000000000e+00" cType="1" res="-1.1755738407373428e-02" rms="3.8738024234771729e-01" purity="1.8460321426391602e-01" nType="-99"/>
            <Node pos="r" depth="3" NCoef="0" IVar="-1" Cut="0.0000000000000000e+00" cType="1" res="-7.0446967147290707e-03" rms="4.6084272861480713e-01" purity="3.0751726031303406e-01" nType="-99"/>
          </Node>
          <Node pos="r" depth="2" NCoef="0" IVar="-1" Cut="0.0000000000000000e+00" cType="1" res="-1.2486366322264075e-03" rms="4.9789339303970337e-01" purity="4.6324709057807922e-01" nType="-99"/>
        </Node>
        <Node pos="r" depth="1" NCoef="0" IVar="6" Cut="1.7806451797485352e+01" cType="1" res="2.6378494501113892e-01" rms="4.0703526139259338e-01" purity="7.8626495599746704e-01" nType="0">
          <Node pos="l" depth="2" NCoef="0" IVar="-1" Cut="0.0000000000000000e+00" cType="1" res="2.6973029598593712e-03" rms="4.9339458346366882e-01" purity="5.7580935955047607e-01" nType="-99"/>
          <Node pos="r" depth="2" NCoef="0" IVar="6" Cut="2.1096775054931641e+01" cType="1" res="3.0874651670455933e-01" rms="3.7016633152961731e-01" purity="8.3444952964782715e-01" nType="0">
            <Node pos="l" depth="3" NCoef="0" IVar="-1" Cut="0.0000000000000000e+00" cType="1" res="1.0740418918430805e-02" rms="4.0659147500991821e-01" purity="7.8995096683502197e-01" nType="-99"/>
            <Node pos="r" depth="3" NCoef="0" IVar="-1" Cut="0.0000000000000000e+00" cType="1" res="1.5946999192237854e-02" rms="2.5409010052680969e-01" purity="9.3054634332656860e-01" nType="-99"/>
          </Node>
        </Node>
      </Node>
    </BinaryTree>
    <BinaryTree type="DecisionTree" boostWeight="1.0000000000000000e+00" itree="5">
      <Node pos="s" depth="0" NCoef="0" IVar="6" Cut="1.6193548202514648e+01" cType="1" res="3.0361725948750973e-03" rms="4.8534372448921204e-01" purity="5.0329327583312988e-01" nType="0">
        <Node pos="l" depth="1" NCoef="0" IVar="6" Cut="1.5032258033752441e+01" cType="1" res="-2.0499339699745178e-01" rms="4.4362148642539978e-01" purity="2.7366173267364502e-01" nType="0">
          <Node pos="l" depth="2" NCoef="0" IVar="10" Cut="5.1689953804016113e+00" cType="1" res="-2.4109514057636261e-01" rms="4.2249023914337158e-01" purity="2.3422999680042267e-01" nType="0">
            <Node pos="l" depth="3" NCoef="0" IVar="-1" Cut="0.0000000000000000e+00" cType="1" res="-1.0516297072172165e-02" rms="4.0845397114753723e-01" purity="2.1302619576454163e-01" nType="-99"/>
            <Node pos="r" depth="3" NCoef="0" IVar="-1" Cut="0.0000000000000000e+00" cType="1" res="-3.9983266033232212e-03" rms="4.8328322172164917e-01" purity="3.7610876560211182e-01" nType="-99"/>
          </Node>
          <Node pos="r" depth="2" NCoef="0" IVar="-1" Cut="0.0000000000000000e+00" cType="1" res="-1.6034379368647933e-03" rms="4.9724662303924561e-01" purity="4.5378991961479187e-01" nType="-99"/>
        </Node>
        <Node pos="r" depth="1" NCoef="0" IVar="6" Cut="1.8612903594970703e+01" cType="1" res="2.6944306492805481e-01" rms="3.9849758148193359e-01" purity="7.9736399650573730e-01" nType="0">
          <Node pos="l" depth="2" NCoef="0" IVar="1" Cut="1.0463580468750000e+05" cType="1" res="1.4267188310623169e-01" rms="4.7370097041130066e-01" purity="6.5680193901062012e-01" nType="0">
            <Node pos="l" depth="3" NCoef="0" IVar="-1" Cut="0.0000000000000000e+00" cType="1" res="3.4555606544017792e-03" rms="4.8994609713554382e-01" purity="5.9643483161926270e-01" nType="-99"/>
            <Node pos="r" depth="3" NCoef="0" IVar="-1" Cut="0.0000000000000000e+00" cType="1" res="8.1597352400422096e-03" rms="4.4751289486885071e-01" purity="7.2221100330352783e-01" nType="-99"/>
          </Node>
          <Node pos="r" depth="2" NCoef="0" IVar="6" Cut="2.2709676742553711e+01" cType="1" res="3.4167498350143433e-01" rms="3.2718896865844727e-01" purity="8.7745380401611328e-01" nType="0">
            <Node pos="l" depth="3" NCoef="0" IVar="-1" Cut="0.0000000000000000e+00" cType="1" res="1.2510372325778008e-02" rms="3.6213529109954834e-01" purity="8.4463679790496826e-01" nType="-99"/>
            <Node pos="r" depth="3" NCoef="0" IVar="-1" Cut="0.0000000000000000e+00" cType="1" res="1.6977822408080101e-02" rms="1.8688745796680450e-01" purity="9.6375966072082520e-01" nType="-99"/>
          </Node>
        </Node>
      </Node>
    </BinaryTree>
    <BinaryTree type="DecisionTree" boostWeight="1.0000000000000000e+00" itree="6">
      <Node pos="s" depth="0" NCoef="0" IVar="6" Cut="1.7000000000000000e+01" cType="1" res="1.1696056462824345e-03" rms="4.8254629969596863e-01" purity="5.0117248296737671e-01" nType="0">
        <Node pos="l" depth="1" NCoef="0" IVar="6" Cut="1.4064516067504883e+01" cType="1" res="-2.0247560739517212e-01" rms="4.4232749938964844e-01" purity="2.7195870876312256e-01" nType="0">
          <Node pos="l" depth="2" NCoef="0" IVar="1" Cut="9.5661796875000000e+04" cType="1" res="-2.6827228069305420e-01" rms="3.9879918098449707e-01" purity="1.9924546778202057e-01" nType="0">
            <Node pos="l" depth="3" NCoef="0" IVar="-1" Cut="0.0000000000000000e+00" cType="1" res="-1.2528200633823872e-02" rms="3.5947734117507935e-01" purity="1.5270768105983734e-01" nType="-99"/>
            <Node pos="r" depth="3" NCoef="0" IVar="-1" Cut="0.0000000000000000e+00" cType="1" res="-8.7808556854724884e-03" rms="4.3416300415992737e-01" purity="2.5238969922065735e-01" nType="-99"/>
          </Node>
          <Node pos="r" depth="2" NCoef="0" IVar="1" Cut="1.0311607812500000e+05" cType="1" res="-1.1628922820091248e-01" rms="4.8011818528175354e-01" purity="3.6720505356788635e-01" nType="0">
            <Node pos="l" depth="3" NCoef="0" IVar="-1" Cut="0.0000000000000000e+00" cType="1" res="-7.1263639256358147e-03" rms="4.5769506692886353e-01" purity="3.0157318711280823e-01" nType="-99"/>
            <Node pos="r" depth="3" NCoef="0" IVar="-1" Cut="0.0000000000000000e+00" cType="1" res="-1.5454293461516500e-03" rms="4.9624159932136536e-01" purity="4.5008584856987000e-01" nType="-99"/>
          </Node>
        </Node>
        <Node pos="r" depth="1" NCoef="0" IVar="6" Cut="1.8548387527465820e+01" cType="1" res="2.6547506451606750e-01" rms="3.9679515361785889e-01" purity="7.9866266250610352e-01" nType="0">
          <Node pos="l" depth="2" NCoef="0" IVar="1" Cut="1.0467454687500000e+05" cType="1" res="1.3694162666797638e-01" rms="4.7449225187301636e-01" purity="6.5389752388000488e-01" nType="0">
            <Node pos="l" depth="3" NCoef="0" IVar="-1" Cut="0.0000000000000000e+00" cType="1" res="3.2365673687309027e-03" rms="4.9065974354743958e-01" purity="5.9274232387542725e-01" nType="-99"/>
            <Node pos="r" depth="3" NCoef="0" IVar="-1" Cut="0.0000000000000000e+00" cType="1" res="7.9640112817287445e-03" rms="4.4798240065574646e-01" purity="7.2122699022293091e-01" nType="-99"/>
          </Node>
          <Node pos="r" depth="2" NCoef="0" IVar="6" Cut="2.1129032135009766e+01" cType="1" res="3.4007561206817627e-01" rms="3.2093855738639832e-01" purity="8.8268405199050903e-01" nType="0">
            <Node pos="l" depth="3" NCoef="0" IVar="-1" Cut="0.0000000000000000e+00" cType="1" res="1.2219851836562157e-02" rms="3.6505192518234253e-01" purity="8.4166812896728516e-01" nType="-99"/>
            <Node pos="r" depth="3" NCoef="0" IVar="-1" Cut="0.0000000000000000e+00" cType="1" res="1.5847815200686455e-02" rms="2.3421046137809753e-01" purity="9.4166737794876099e-01" nType="-99"/>
          </Node>
        </Node>
      </Node>
    </BinaryTree>
    <BinaryTree type="DecisionTree" boostWeight="1.0000000000000000e+00" itree="7">
      <Node pos="s" depth="0" NCoef="0" IVar="6" Cut="1.6193548202514648e+01" cType="1" res="-1.4590220525860786e-03" rms="4.7975480556488037e-01" purity="4.9830985069274902e-01" nType="0">
        <Node pos="l" depth="1" NCoef="0" IVar="6" Cut="1.4064516067504883e+01" cType="1" res="-2.0067207515239716e-01" rms="4.4061410427093506e-01" purity="2.6952740550041199e-01" nType="0">
          <Node pos="l" depth="2" NCoef="0" IVar="1" Cut="9.7835781250000000e+04" cType="1" res="-2.6756241917610168e-01" rms="3.9510586857795715e-01" purity="1.9454699754714966e-01" nType="0">
            <Node pos="l" depth="3" NCoef="0" IVar="-1" Cut="0.0000000000000000e+00" cType="1" res="-1.2433451600372791e-02" rms="3.5639655590057373e-01" purity="1.4955751597881317e-01" nType="-99"/>
            <Node pos="r" depth="3" NCoef="0" IVar="-1" Cut="0.0000000000000000e+00" cType="1" res="-8.7091652676463127e-03" rms="4.3288770318031311e-01" purity="2.5014564394950867e-01" nType="-99"/>
          </Node>
          <Node pos="r" depth="2" NCoef="0" IVar="1" Cut="6.8785343750000000e+04" cType="1" res="-1.0897855460643768e-01" rms="4.8138785362243652e-01" purity="3.7231084704399109e-01" nType="0">
            <Node pos="l" depth="3" NCoef="0" IVar="-1" Cut="0.0000000000000000e+00" cType="1" res="-8.0572552978992462e-03" rms="4.4437241554260254e-01" purity="2.7352836728096008e-01" nType="-99"/>
            <Node pos="r" depth="3" NCoef="0" IVar="-1" Cut="0.0000000000000000e+00" cType="1" res="-2.3924915585666895e-03" rms="4.9310550093650818e-01" purity="4.2525658011436462e-01" nType="-99"/>
          </Node>
        </Node>
        <Node pos="r" depth="1" NCoef="0" IVar="6" Cut="1.8612903594970703e+01" cType="1" res="2.5894948840141296e-01" rms="3.9694488048553467e-01" purity="7.9737114906311035e-01" nType="0">
          <Node pos="l" depth="2" NCoef="0" IVar="1" Cut="9.4416046875000000e+04" cType="1" res="1.2869997322559357e-01" rms="4.7602313756942749e-01" purity="6.4825814962387085e-01" nType="0">
            <Node pos="l" depth="3" NCoef="0" IVar="-1" Cut="0.0000000000000000e+00" cType="1" res="2.2708466276526451e-03" rms="4.9467122554779053e-01" purity="5.6931966543197632e-01" nType="-99"/>
            <Node pos="r" depth="3" NCoef="0" IVar="-1" Cut="0.0000000000000000e+00" cType="1" res="7.7721355482935905e-03" rms="4.4868066906929016e-01" purity="7.1962934732437134e-01" nType="-99"/>
          </Node>
          <Node pos="r" depth="2" NCoef="0" IVar="6" Cut="2.0483871459960938e+01" cType="1" res="3.3524328470230103e-01" rms="3.1838852167129517e-01" purity="8.8471412658691406e-01" nType="0">
            <Node pos="l" depth="3" NCoef="0" IVar="-1" Cut="0.0000000000000000e+00" cType="1" res="1.1268133297562599e-02" rms="3.8122746348381042e-01" purity="8.2352060079574585e-01" nType="-99"/>
            <Node pos="r" depth="3" NCoef="0" IVar="-1" Cut="0.0000000000000000e+00" cType="1" res="1.5300062485039234e-02" rms="2.5177717208862305e-01" purity="9.3171077966690063e-01" nType="-99"/>
          </Node>
        </Node>
      </Node>
    </BinaryTree>
    <BinaryTree type="DecisionTree" boostWeight="1.0000000000000000e+00" itree="8">
      <Node pos="s" depth="0" NCoef="0" IVar="6" Cut="1.6193548202514648e+01" cType="1" res="-5.5886030895635486e-04" rms="4.7757914662361145e-01" purity="4.9954032897949219e-01" nType="0">
        <Node pos="l" depth="1" NCoef="0" IVar="6" Cut="1.4064516067504883e+01" cType="1" res="-1.9435963034629822e-01" rms="4.4149857759475708e-01" purity="2.7198022603988647e-01" nType="0">
          <Node pos="l" depth="2" NCoef="0" IVar="1" Cut="1.2740856250000000e+05" cType="1" res="-2.5830581784248352e-01" rms="3.9792445302009583e-01" purity="1.9843272864818573e-01" nType="0">
            <Node pos="l" depth="3" NCoef="0" IVar="-1" Cut="0.0000000000000000e+00" cType="1" res="-1.1708666570484638e-02" rms="3.6944019794464111e-01" purity="1.6357214748859406e-01" nType="-99"/>
            <Node pos="r" depth="3" NCoef="0" IVar="-1" Cut="0.0000000000000000e+00" cType="1" res="-7.5068227015435696e-03" rms="4.4724887609481812e-01" purity="2.7674892544746399e-01" nType="-99"/>
          </Node>
          <Node pos="r" depth="2" NCoef="0" IVar="1" Cut="6.8821007812500000e+04" cType="1" res="-1.0880172997713089e-01" rms="4.8069608211517334e-01" purity="3.7038445472717285e-01" nType="0">
            <Node pos="l" depth="3" NCoef="0" IVar="-1" Cut="0.0000000000000000e+00" cType="1" res="-8.1115243956446648e-03" rms="4.4179242849349976e-01" purity="2.6841664314270020e-01" nType="-99"/>
            <Node pos="r" depth="3" NCoef="0" IVar="-1" Cut="0.0000000000000000e+00" cType="1" res="-2.3396241012960672e-03" rms="4.9318495392799377e-01" purity="4.2550292611122131e-01" nType="-99"/>
          </Node>
        </Node>
        <Node pos="r" depth="1" NCoef="0" IVar="6" Cut="1.8612903594970703e+01" cType="1" res="2.4995861947536469e-01" rms="3.9954710006713867e-01" purity="7.9369699954986572e-01" nType="0">
          <Node pos="l" depth="2" NCoef="0" IVar="6" Cut="1.7032258987426758e+01" cType="1" res="1.3197013735771179e-01" rms="4.7421213984489441e-01" purity="6.5444350242614746e-01" nType="0">
            <Node pos="l" depth="3" NCoef="0" IVar="-1" Cut="0.0000000000000000e+00" cType="1" res="3.0945683829486370e-03" rms="4.8998811841011047e-01" purity="5.9545516967773438e-01" nType="-99"/>
            <Node pos="r" depth="3" NCoef="0" IVar="-1" Cut="0.0000000000000000e+00" cType="1" res="7.3719210922718048e-03" rms="4.5274209976196289e-01" purity="7.1023988723754883e-01" nType="-99"/>
          </Node>
          <Node pos="r" depth="2" NCoef="0" IVar="6" Cut="2.1225807189941406e+01" cType="1" res="3.1866902112960815e-01" rms="3.2987534999847412e-01" purity="8.7479096651077271e-01" nType="0">
            <Node pos="l" depth="3" NCoef="0" IVar="-1" Cut="0.0000000000000000e+00" cType="1" res="1.1451098136603832e-02" rms="3.7247478961944580e-01" purity="8.3351457118988037e-01" nType="-99"/>
            <Node pos="r" depth="3" NCoef="0" IVar="-1" Cut="0.0000000000000000e+00" cType="1" res="1.5010268427431583e-02" rms="2.4868123233318329e-01" purity="9.3365925550460815e-01" nType="-99"/>
          </Node>
        </Node>
      </Node>
    </BinaryTree>
    <BinaryTree type="DecisionTree" boostWeight="1.0000000000000000e+00" itree="9">
      <Node pos="s" depth="0" NCoef="0" IVar="6" Cut="1.7000000000000000e+01" cType="1" res="-3.6834122147411108e-04" rms="4.7552448511123657e-01" purity="4.9999380111694336e-01" nType="0">
        <Node pos="l" depth="1" NCoef="0" IVar="6" Cut="1.4064516067504883e+01" cType="1" res="-1.8677414953708649e-01" rms="4.4290319085121155e-01" purity="2.7563166618347168e-01" nType="0">
          <Node pos="l" depth="2" NCoef="0" IVar="1" Cut="1.4404520312500000e+05" cType="1" res="-2.5070959329605103e-01" rms="3.9966124296188354e-01" purity="2.0087365806102753e-01" nType="0">
            <Node pos="l" depth="3" NCoef="0" IVar="-1" Cut="0.0000000000000000e+00" cType="1" res="-1.1236660182476044e-02" rms="3.7597808241844177e-01" purity="1.7097014188766479e-01" nType="-99"/>
            <Node pos="r" depth="3" NCoef="0" IVar="-1" Cut="0.0000000000000000e+00" cType="1" res="-6.6925617866218090e-03" rms="4.5523589849472046e-01" purity="2.9357978701591492e-01" nType="-99"/>
          </Node>
          <Node pos="r" depth="2" NCoef="0" IVar="1" Cut="6.9167843750000000e+04" cType="1" res="-1.0184242576360703e-01" rms="4.8157939314842224e-01" purity="3.7494006752967834e-01" nType="0">
            <Node pos="l" depth="3" NCoef="0" IVar="-1" Cut="0.0000000000000000e+00" cType="1" res="-7.8708026558160782e-03" rms="4.4309034943580627e-01" purity="2.7065879106521606e-01" nType="-99"/>
            <Node pos="r" depth="3" NCoef="0" IVar="-1" Cut="0.0000000000000000e+00" cType="1" res="-1.9811871461570263e-03" rms="4.9405252933502197e-01" purity="4.3306714296340942e-01" nType="-99"/>
          </Node>
        </Node>
        <Node pos="r" depth="1" NCoef="0" IVar="6" Cut="1.9322580337524414e+01" cType="1" res="2.3672245442867279e-01" rms="4.0475070476531982e-01" purity="7.8536146879196167e-01" nType="0">
          <Node pos="l" depth="2" NCoef="0" IVar="6" Cut="1.7064516067504883e+01" cType="1" res="1.4983128011226654e-01" rms="4.6215903759002686e-01" purity="6.8379974365234375e-01" nType="0">
            <Node pos="l" depth="3" NCoef="0" IVar="-1" Cut="0.0000000000000000e+00" cType="1" res="2.3307178635150194e-03" rms="4.9308064579963684e-01" purity="5.7797783613204956e-01" nType="-99"/>
            <Node pos="r" depth="3" NCoef="0" IVar="-1" Cut="0.0000000000000000e+00" cType="1" res="8.0264536663889885e-03" rms="4.3676048517227173e-01" purity="7.4070131778717041e-01" nType="-99"/>
          </Node>
          <Node pos="r" depth="2" NCoef="0" IVar="6" Cut="2.1354839324951172e+01" cType="1" res="3.3209046721458435e-01" rms="3.0301550030708313e-01" purity="8.9683127403259277e-01" nType="0">
            <Node pos="l" depth="3" NCoef="0" IVar="-1" Cut="0.0000000000000000e+00" cType="1" res="1.1750786565244198e-02" rms="3.6078053712844849e-01" purity="8.4622335433959961e-01" nType="-99"/>
            <Node pos="r" depth="3" NCoef="0" IVar="-1" Cut="0.0000000000000000e+00" cType="1" res="1.5029020607471466e-02" rms="2.3736862838268280e-01" purity="9.3997043371200562e-01" nType="-99"/>
          </Node>
        </Node>
      </Node>
    </BinaryTree>
    <BinaryTree type="DecisionTree" boostWeight="1.0000000000000000e+00" itree="10">
      <Node pos="s" depth="0" NCoef="0" IVar="6" Cut="1.6193548202514648e+01" cType="1" res="5.9648283058777452e-04" rms="4.7264751791954041e-01" purity="5.0065135955810547e-01" nType="0">
        <Node pos="l" depth="1" NCoef="0" IVar="6" Cut="1.5032258033752441e+01" cType="1" res="-1.8709704279899597e-01" rms="4.4052642583847046e-01" purity="2.7161419391632080e-01" nType="0">
          <Node pos="l" depth="2" NCoef="0" IVar="1" Cut="6.8215351562500000e+04" cType="1" res="-2.2127144038677216e-01" rms="4.1974696516990662e-01" purity="2.3194678127765656e-01" nType="0">
            <Node pos="l" depth="3" NCoef="0" IVar="-1" Cut="0.0000000000000000e+00" cType="1" res="-1.1696502566337585e-02" rms="3.6246064305305481e-01" purity="1.5616352856159210e-01" nType="-99"/>
            <Node pos="r" depth="3" NCoef="0" IVar="-1" Cut="0.0000000000000000e+00" cType="1" res="-7.3062237352132797e-03" rms="4.4546034932136536e-01" purity="2.7684924006462097e-01" nType="-99"/>
          </Node>
          <Node pos="r" depth="2" NCoef="0" IVar="-1" Cut="0.0000000000000000e+00" cType="1" res="-1.1057136580348015e-03" rms="4.9659079313278198e-01" purity="4.5674046874046326e-01" nType="-99"/>
        </Node>
        <Node pos="r" depth="1" NCoef="0" IVar="6" Cut="1.9419355392456055e+01" cType="1" res="2.4291642010211945e-01" rms="3.9631280303001404e-01" purity="7.9634755849838257e-01" nType="0">
          <Node pos="l" depth="2" NCoef="0" IVar="10" Cut="2.0794150829315186e+00" cType="1" res="1.5475822985172272e-01" rms="4.5882895588874817e-01" purity="6.9179362058639526e-01" nType="0">
            <Node pos="l" depth="3" NCoef="0" IVar="-1" Cut="0.0000000000000000e+00" cType="1" res="1.8553752452135086e-03" rms="4.9062374234199524e-01" purity="5.8305478096008301e-01" nType="-99"/>
            <Node pos="r" depth="3" NCoef="0" IVar="-1" Cut="0.0000000000000000e+00" cType="1" res="8.0670211464166641e-03" rms="4.3684205412864685e-01" purity="7.3739969730377197e-01" nType="-99"/>
          </Node>
          <Node pos="r" depth="2" NCoef="0" IVar="10" Cut="3.3949513435363770e+00" cType="1" res="3.4000107645988464e-01" rms="2.8320717811584473e-01" purity="9.1148817539215088e-01" nType="0">
            <Node pos="l" depth="3" NCoef="0" IVar="-1" Cut="0.0000000000000000e+00" cType="1" res="1.3393326662480831e-02" rms="2.9979988932609558e-01" purity="8.9944356679916382e-01" nType="-99"/>
            <Node pos="r" depth="3" NCoef="0" IVar="-1" Cut="0.0000000000000000e+00" cType="1" res="1.5418415889143944e-02" rms="2.2007521986961365e-01" purity="9.4872868061065674e-01" nType="-99"/>
          </Node>
        </Node>
      </Node>
    </BinaryTree>
    <BinaryTree type="DecisionTree" boostWeight="1.0000000000000000e+00" itree="11">
      <Node pos="s" depth="0" NCoef="0" IVar="6" Cut="1.6193548202514648e+01" cType="1" res="-2.2360002622008324e-03" rms="4.7080403566360474e-01" purity="4.9830681085586548e-01" nType="0">
        <Node pos="l" depth="1" NCoef="0" IVar="6" Cut="1.5032258033752441e+01" cType="1" res="-1.8376661837100983e-01" rms="4.3993166089057922e-01" purity="2.7115502953529358e-01" nType="0">
          <Node pos="l" depth="2" NCoef="0" IVar="10" Cut="5.2901234626770020e+00" cType="1" res="-2.1652494370937347e-01" rms="4.1968014836311340e-01" purity="2.3214262723922729e-01" nType="0">
            <Node pos="l" depth="3" NCoef="0" IVar="-1" Cut="0.0000000000000000e+00" cType="1" res="-9.6820397302508354e-03" rms="4.0417477488517761e-01" purity="2.0882044732570648e-01" nType="-99"/>
            <Node pos="r" depth="3" NCoef="0" IVar="-1" Cut="0.0000000000000000e+00" cType="1" res="-2.0145736634731293e-03" rms="4.8800477385520935e-01" purity="4.0299171209335327e-01" nType="-99"/>
          </Node>
          <Node pos="r" depth="2" NCoef="0" IVar="-1" Cut="0.0000000000000000e+00" cType="1" res="-1.2985977809876204e-03" rms="4.9608951807022095e-01" purity="4.5139554142951965e-01" nType="-99"/>
        </Node>
        <Node pos="r" depth="1" NCoef="0" IVar="6" Cut="1.8612903594970703e+01" cType="1" res="2.2667385637760162e-01" rms="4.0392762422561646e-01" purity="7.8474491834640503e-01" nType="0">
          <Node pos="l" depth="2" NCoef="0" IVar="10" Cut="3.1120326519012451e+00" cType="1" res="1.0680355131626129e-01" rms="4.7885289788246155e-01" purity="6.3753581047058105e-01" nType="0">
            <Node pos="l" depth="3" NCoef="0" IVar="-1" Cut="0.0000000000000000e+00" cType="1" res="2.5772822555154562e-03" rms="4.8908081650733948e-01" purity="5.9396380186080933e-01" nType="-99"/>
            <Node pos="r" depth="3" NCoef="0" IVar="-1" Cut="0.0000000000000000e+00" cType="1" res="7.7455923892557621e-03" rms="4.4530621170997620e-01" purity="7.2536516189575195e-01" nType="-99"/>
          </Node>
          <Node pos="r" depth="2" NCoef="0" IVar="6" Cut="2.1225807189941406e+01" cType="1" res="2.9732653498649597e-01" rms="3.3273342251777649e-01" purity="8.7151134014129639e-01" nType="0">
            <Node pos="l" depth="3" NCoef="0" IVar="-1" Cut="0.0000000000000000e+00" cType="1" res="1.0390479117631912e-02" rms="3.8278201222419739e-01" purity="8.2135170698165894e-01" nType="-99"/>
            <Node pos="r" depth="3" NCoef="0" IVar="-1" Cut="0.0000000000000000e+00" cType="1" res="1.4846714213490486e-02" rms="2.2521568834781647e-01" purity="9.4630622863769531e-01" nType="-99"/>
          </Node>
        </Node>
      </Node>
    </BinaryTree>
    <BinaryTree type="DecisionTree" boostWeight="1.0000000000000000e+00" itree="12">
      <Node pos="s" depth="0" NCoef="0" IVar="6" Cut="1.6193548202514648e+01" cType="1" res="-8.2585588097572327e-03" rms="4.6847945451736450e-01" purity="4.9161663651466370e-01" nType="0">
        <Node pos="l" depth="1" NCoef="0" IVar="6" Cut="1.4064516067504883e+01" cType="1" res="-1.8515658378601074e-01" rms="4.3699157238006592e-01" purity="2.6606991887092590e-01" nType="0">
          <Node pos="l" depth="2" NCoef="0" IVar="1" Cut="6.7833742187500000e+04" cType="1" res="-2.4546605348587036e-01" rms="3.9273989200592041e-01" purity="1.9228358566761017e-01" nType="0">
            <Node pos="l" depth="3" NCoef="0" IVar="-1" Cut="0.0000000000000000e+00" cType="1" res="-1.2392056174576283e-02" rms="3.3143061399459839e-01" purity="1.2582707405090332e-01" nType="-99"/>
            <Node pos="r" depth="3" NCoef="0" IVar="-1" Cut="0.0000000000000000e+00" cType="1" res="-8.4991427138447762e-03" rms="4.2214497923851013e-01" purity="2.3318463563919067e-01" nType="-99"/>
          </Node>
          <Node pos="r" depth="2" NCoef="0" IVar="1" Cut="1.0325262500000000e+05" cType="1" res="-1.0327450186014175e-01" rms="4.7871631383895874e-01" purity="3.6624953150749207e-01" nType="0">
            <Node pos="l" depth="3" NCoef="0" IVar="-1" Cut="0.0000000000000000e+00" cType="1" res="-6.2758540734648705e-03" rms="4.5865058898925781e-01" purity="3.0553239583969116e-01" nType="-99"/>
            <Node pos="r" depth="3" NCoef="0" IVar="-1" Cut="0.0000000000000000e+00" cType="1" res="-1.5779304085299373e-03" rms="4.9456673860549927e-01" purity="4.4007912278175354e-01" nType="-99"/>
          </Node>
        </Node>
        <Node pos="r" depth="1" NCoef="0" IVar="6" Cut="1.8612903594970703e+01" cType="1" res="2.1945096552371979e-01" rms="4.0501958131790161e-01" purity="7.8194850683212280e-01" nType="0">
          <Node pos="l" depth="2" NCoef="0" IVar="4" Cut="3.4287667968750000e+04" cType="1" res="9.7049303352832794e-02" rms="4.8066011071205139e-01" purity="6.2969219684600830e-01" nType="0">
            <Node pos="l" depth="3" NCoef="0" IVar="-1" Cut="0.0000000000000000e+00" cType="1" res="2.2356887347996235e-03" rms="4.8980495333671570e-01" purity="5.8780294656753540e-01" nType="-99"/>
            <Node pos="r" depth="3" NCoef="0" IVar="-1" Cut="0.0000000000000000e+00" cType="1" res="7.1426881477236748e-03" rms="4.5156821608543396e-01" purity="7.1125000715255737e-01" nType="-99"/>
          </Node>
          <Node pos="r" depth="2" NCoef="0" IVar="6" Cut="2.1225807189941406e+01" cType="1" res="2.9209408164024353e-01" rms="3.3183264732360840e-01" purity="8.7230980396270752e-01" nType="0">
            <Node pos="l" depth="3" NCoef="0" IVar="-1" Cut="0.0000000000000000e+00" cType="1" res="1.0457578115165234e-02" rms="3.7758991122245789e-01" purity="8.2730895280838013e-01" nType="-99"/>
            <Node pos="r" depth="3" NCoef="0" IVar="-1" Cut="0.0000000000000000e+00" cType="1" res="1.4271750114858150e-02" rms="2.4152784049510956e-01" purity="9.3769693374633789e-01" nType="-99"/>
          </Node>
        </Node>
      </Node>
    </BinaryTree>
    <BinaryTree type="DecisionTree" boostWeight="1.0000000000000000e+00" itree="13">
      <Node pos="s" depth="0" NCoef="0" IVar="6" Cut="1.6193548202514648e+01" cType="1" res="1.7897738143801689e-03" rms="4.6697649359703064e-01" purity="5.0242435932159424e-01" nType="0">
        <Node pos="l" depth="1" NCoef="0" IVar="6" Cut="1.4064516067504883e+01" cType="1" res="-1.7245437204837799e-01" rms="4.4175711274147034e-01" purity="2.7559638023376465e-01" nType="0">
          <Node pos="l" depth="2" NCoef="0" IVar="10" Cut="2.5341699123382568e+00" cType="1" res="-2.3073594272136688e-01" rms="4.0058636665344238e-01" purity="2.0252139866352081e-01" nType="0">
            <Node pos="l" depth="3" NCoef="0" IVar="-1" Cut="0.0000000000000000e+00" cType="1" res="-1.1273261159658432e-02" rms="3.6127057671546936e-01" purity="1.5532806515693665e-01" nType="-99"/>
            <Node pos="r" depth="3" NCoef="0" IVar="-1" Cut="0.0000000000000000e+00" cType="1" res="-7.5464546680450439e-03" rms="4.3129387497901917e-01" purity="2.4928277730941772e-01" nType="-99"/>
          </Node>
          <Node pos="r" depth="2" NCoef="0" IVar="1" Cut="1.2416627343750000e+05" cType="1" res="-9.5644958317279816e-02" rms="4.8008108139038086e-01" purity="3.7190207839012146e-01" nType="0">
            <Node pos="l" depth="3" NCoef="0" IVar="-1" Cut="0.0000000000000000e+00" cType="1" res="-5.7730763219296932e-03" rms="4.6336883306503296e-01" purity="3.1825286149978638e-01" nType="-99"/>
            <Node pos="r" depth="3" NCoef="0" IVar="-1" Cut="0.0000000000000000e+00" cType="1" res="-4.0568436816101894e-05" rms="4.9829417467117310e-01" purity="4.7836109995841980e-01" nType="-99"/>
          </Node>
        </Node>
        <Node pos="r" depth="1" NCoef="0" IVar="6" Cut="1.7806451797485352e+01" cType="1" res="2.2304332256317139e-01" rms="3.9957779645919800e-01" purity="7.9044830799102783e-01" nType="0">
          <Node pos="l" depth="2" NCoef="0" IVar="-1" Cut="0.0000000000000000e+00" cType="1" res="2.0675978157669306e-03" rms="4.9237835407257080e-01" purity="5.7951951026916504e-01" nType="-99"/>
          <Node pos="r" depth="2" NCoef="0" IVar="6" Cut="1.9548387527465820e+01" cType="1" res="2.6249355077743530e-01" rms="3.6373367905616760e-01" purity="8.3895897865295410e-01" nType="0">
            <Node pos="l" depth="3" NCoef="0" IVar="-1" Cut="0.0000000000000000e+00" cType="1" res="8.3209713920950890e-03" rms="4.2488071322441101e-01" purity="7.6122939586639404e-01" nType="-99"/>
            <Node pos="r" depth="3" NCoef="0" IVar="-1" Cut="0.0000000000000000e+00" cType="1" res="1.2494946829974651e-02" rms="3.0862078070640564e-01" purity="8.9252716302871704e-01" nType="-99"/>
          </Node>
        </Node>
      </Node>
    </BinaryTree>
    <BinaryTree type="DecisionTree" boostWeight="1.0000000000000000e+00" itree="14">
      <Node pos="s" depth="0" NCoef="0" IVar="6" Cut="1.8000000000000000e+01" cType="1" res="2.2398428991436958e-03" rms="4.6381878852844238e-01" purity="5.0175392627716064e-01" nType="0">
        <Node pos="l" depth="1" NCoef="0" IVar="6" Cut="1.5193548202514648e+01" cType="1" res="-1.4342916011810303e-01" rms="4.5262566208839417e-01" purity="3.1133332848548889e-01" nType="0">
          <Node pos="l" depth="2" NCoef="0" IVar="1" Cut="8.3838281250000000e+04" cType="1" res="-2.0296323299407959e-01" rms="4.1948255896568298e-01" purity="2.3322154581546783e-01" nType="0">
            <Node pos="l" depth="3" NCoef="0" IVar="-1" Cut="0.0000000000000000e+00" cType="1" res="-1.0528275743126869e-02" rms="3.7326011061668396e-01" purity="1.6908648610115051e-01" nType="-99"/>
            <Node pos="r" depth="3" NCoef="0" IVar="-1" Cut="0.0000000000000000e+00" cType="1" res="-6.2316632829606533e-03" rms="4.5165228843688965e-01" purity="2.9119670391082764e-01" nType="-99"/>
          </Node>
          <Node pos="r" depth="2" NCoef="0" IVar="1" Cut="6.9895234375000000e+04" cType="1" res="9.0023670345544815e-03" rms="4.9655488133430481e-01" purity="5.1133143901824951e-01" nType="0">
            <Node pos="l" depth="3" NCoef="0" IVar="-1" Cut="0.0000000000000000e+00" cType="1" res="-2.6540602557361126e-03" rms="4.9133607745170593e-01" purity="4.2318049073219299e-01" nType="-99"/>
            <Node pos="r" depth="3" NCoef="0" IVar="-1" Cut="0.0000000000000000e+00" cType="1" res="1.7971943598240614e-03" rms="4.9502658843994141e-01" purity="5.5334222316741943e-01" nType="-99"/>
          </Node>
        </Node>
        <Node pos="r" depth="1" NCoef="0" IVar="6" Cut="1.9483871459960938e+01" cType="1" res="2.6905480027198792e-01" rms="3.5193735361099243e-01" purity="8.5053819417953491e-01" nType="0">
          <Node pos="l" depth="2" NCoef="0" IVar="1" Cut="1.1197024218750000e+05" cType="1" res="2.0636273920536041e-01" rms="4.2138317227363586e-01" purity="7.6622426509857178e-01" nType="0">
            <Node pos="l" depth="3" NCoef="0" IVar="-1" Cut="0.0000000000000000e+00" cType="1" res="6.8446849472820759e-03" rms="4.4443130493164062e-01" purity="7.2499781847000122e-01" nType="-99"/>
            <Node pos="r" depth="3" NCoef="0" IVar="-1" Cut="0.0000000000000000e+00" cType="1" res="1.0225261561572552e-02" rms="3.8736471533775330e-01" purity="8.1540042161941528e-01" nType="-99"/>
          </Node>
          <Node pos="r" depth="2" NCoef="0" IVar="6" Cut="2.1354839324951172e+01" cType="1" res="3.1262758374214172e-01" rms="2.8618854284286499e-01" purity="9.0913885831832886e-01" nType="0">
            <Node pos="l" depth="3" NCoef="0" IVar="-1" Cut="0.0000000000000000e+00" cType="1" res="1.1719658970832825e-02" rms="3.3673265576362610e-01" purity="8.6954194307327271e-01" nType="-99"/>
            <Node pos="r" depth="3" NCoef="0" IVar="-1" Cut="0.0000000000000000e+00" cType="1" res="1.4091652818024158e-02" rms="2.3250831663608551e-01" purity="9.4260656833648682e-01" nType="-99"/>
          </Node>
        </Node>
      </Node>
    </BinaryTree>
    <BinaryTree type="DecisionTree" boostWeight="1.0000000000000000e+00" itree="15">
      <Node pos="s" depth="0" NCoef="0" IVar="6" Cut="1.6774192810058594e+01" cType="1" res="-7.0505286566913128e-03" rms="4.6211078763008118e-01" purity="4.9239081144332886e-01" nType="0">
        <Node pos="l" depth="1" NCoef="0" IVar="6" Cut="1.5032258033752441e+01" cType="1" res="-1.7636719346046448e-01" rms="4.3528202176094055e-01" purity="2.6453721523284912e-01" nType="0">
          <Node pos="l" depth="2" NCoef="0" IVar="10" Cut="4.8514680862426758e+00" cType="1" res="-2.0559367537498474e-01" rms="4.1553497314453125e-01" purity="2.2684212028980255e-01" nType="0">
            <Node pos="l" depth="3" NCoef="0" IVar="-1" Cut="0.0000000000000000e+00" cType="1" res="-9.2170024290680885e-03" rms="4.0109595656394958e-01" purity="2.0536386966705322e-01" nType="-99"/>
            <Node pos="r" depth="3" NCoef="0" IVar="-1" Cut="0.0000000000000000e+00" cType="1" res="-3.0357956420630217e-03" rms="4.7875660657882690e-01" purity="3.6583769321441650e-01" nType="-99"/>
          </Node>
          <Node pos="r" depth="2" NCoef="0" IVar="-1" Cut="0.0000000000000000e+00" cType="1" res="-1.6783948522061110e-03" rms="4.9474009871482849e-01" purity="4.3800964951515198e-01" nType="-99"/>
        </Node>
        <Node pos="r" depth="1" NCoef="0" IVar="6" Cut="1.8483871459960938e+01" cType="1" res="2.1498665213584900e-01" rms="3.9777353405952454e-01" purity="7.9119169712066650e-01" nType="0">
          <Node pos="l" depth="2" NCoef="0" IVar="1" Cut="1.0171438281250000e+05" cType="1" res="1.1119975149631500e-01" rms="4.7408235073089600e-01" purity="6.5086346864700317e-01" nType="0">
            <Node pos="l" depth="3" NCoef="0" IVar="-1" Cut="0.0000000000000000e+00" cType="1" res="2.1781171672046185e-03" rms="4.9088281393051147e-01" purity="5.8521300554275513e-01" nType="-99"/>
            <Node pos="r" depth="3" NCoef="0" IVar="-1" Cut="0.0000000000000000e+00" cType="1" res="6.8502593785524368e-03" rms="4.4878953695297241e-01" purity="7.1811652183532715e-01" nType="-99"/>
          </Node>
          <Node pos="r" depth="2" NCoef="0" IVar="6" Cut="2.1032258987426758e+01" cType="1" res="2.7489730715751648e-01" rms="3.3168083429336548e-01" purity="8.7219572067260742e-01" nType="0">
            <Node pos="l" depth="3" NCoef="0" IVar="-1" Cut="0.0000000000000000e+00" cType="1" res="9.9564008414745331e-03" rms="3.7686583399772644e-01" purity="8.2800894975662231e-01" nType="-99"/>
            <Node pos="r" depth="3" NCoef="0" IVar="-1" Cut="0.0000000000000000e+00" cType="1" res="1.3646904379129410e-02" rms="2.4342843890190125e-01" purity="9.3669182062149048e-01" nType="-99"/>
          </Node>
        </Node>
      </Node>
    </BinaryTree>
    <BinaryTree type="DecisionTree" boostWeight="1.0000000000000000e+00" itree="16">
      <Node pos="s" depth="0" NCoef="0" IVar="6" Cut="1.6774192810058594e+01" cType="1" res="3.2256387639790773e-03" rms="4.5938879251480103e-01" purity="5.0258493423461914e-01" nType="0">
        <Node pos="l" depth="1" NCoef="0" IVar="6" Cut="1.4064516067504883e+01" cType="1" res="-1.6581073403358459e-01" rms="4.3802195787429810e-01" purity="2.7116242051124573e-01" nType="0">
          <Node pos="l" depth="2" NCoef="0" IVar="10" Cut="2.5447545051574707e+00" cType="1" res="-2.2801133990287781e-01" rms="3.9250114560127258e-01" purity="1.9235554337501526e-01" nType="0">
            <Node pos="l" depth="3" NCoef="0" IVar="-1" Cut="0.0000000000000000e+00" cType="1" res="-1.1135195381939411e-02" rms="3.5273709893226624e-01" purity="1.4676773548126221e-01" nType="-99"/>
            <Node pos="r" depth="3" NCoef="0" IVar="-1" Cut="0.0000000000000000e+00" cType="1" res="-7.5885532423853874e-03" rms="4.2442545294761658e-01" purity="2.3811477422714233e-01" nType="-99"/>
          </Node>
          <Node pos="r" depth="2" NCoef="0" IVar="6" Cut="1.5032258033752441e+01" cType="1" res="-7.7037356793880463e-02" rms="4.8209747672080994e-01" purity="3.8363641500473022e-01" nType="0">
            <Node pos="l" depth="3" NCoef="0" IVar="-1" Cut="0.0000000000000000e+00" cType="1" res="-5.1735318265855312e-03" rms="4.6400189399719238e-01" purity="3.1980562210083008e-01" nType="-99"/>
            <Node pos="r" depth="3" NCoef="0" IVar="-1" Cut="0.0000000000000000e+00" cType="1" res="-2.0490749739110470e-04" rms="4.9784111976623535e-01" purity="4.7406136989593506e-01" nType="-99"/>
          </Node>
        </Node>
        <Node pos="r" depth="1" NCoef="0" IVar="6" Cut="1.8483871459960938e+01" cType="1" res="2.2322495281696320e-01" rms="3.8782256841659546e-01" purity="8.0377924442291260e-01" nType="0">
          <Node pos="l" depth="2" NCoef="0" IVar="10" Cut="2.6166763305664062e+00" cType="1" res="1.1982043832540512e-01" rms="4.7038426995277405e-01" purity="6.6174536943435669e-01" nType="0">
            <Node pos="l" depth="3" NCoef="0" IVar="-1" Cut="0.0000000000000000e+00" cType="1" res="2.4177618324756622e-03" rms="4.8741197586059570e-01" purity="5.9920406341552734e-01" nType="-99"/>
            <Node pos="r" depth="3" NCoef="0" IVar="-1" Cut="0.0000000000000000e+00" cType="1" res="6.9206301122903824e-03" rms="4.4877594709396362e-01" purity="7.1580815315246582e-01" nType="-99"/>
          </Node>
          <Node pos="r" depth="2" NCoef="0" IVar="10" Cut="1.9077093601226807e+00" cType="1" res="2.8306320309638977e-01" rms="3.1565123796463013e-01" purity="8.8597160577774048e-01" nType="0">
            <Node pos="l" depth="3" NCoef="0" IVar="-1" Cut="0.0000000000000000e+00" cType="1" res="9.0117007493972778e-03" rms="3.8321849703788757e-01" purity="8.1765711307525635e-01" nType="-99"/>
            <Node pos="r" depth="3" NCoef="0" IVar="-1" Cut="0.0000000000000000e+00" cType="1" res="1.2719416990876198e-02" rms="2.8802698850631714e-01" purity="9.0739554166793823e-01" nType="-99"/>
          </Node>
        </Node>
      </Node>
    </BinaryTree>
    <BinaryTree type="DecisionTree" boostWeight="1.0000000000000000e+00" itree="17">
      <Node pos="s" depth="0" NCoef="0" IVar="6" Cut="1.7000000000000000e+01" cType="1" res="-1.9788974896073341e-03" rms="4.5823252201080322e-01" purity="4.9732097983360291e-01" nType="0">
        <Node pos="l" depth="1" NCoef="0" IVar="6" Cut="1.4064516067504883e+01" cType="1" res="-1.6457681357860565e-01" rms="4.3689164519309998e-01" purity="2.6917207241058350e-01" nType="0">
          <Node pos="l" depth="2" NCoef="0" IVar="1" Cut="7.2312000000000000e+04" cType="1" res="-2.2079478204250336e-01" rms="3.9453622698783875e-01" purity="1.9514563679695129e-01" nType="0">
            <Node pos="l" depth="3" NCoef="0" IVar="-1" Cut="0.0000000000000000e+00" cType="1" res="-1.1166396550834179e-02" rms="3.4266644716262817e-01" purity="1.3640940189361572e-01" nType="-99"/>
            <Node pos="r" depth="3" NCoef="0" IVar="-1" Cut="0.0000000000000000e+00" cType="1" res="-7.7472128905355930e-03" rms="4.2216643691062927e-01" purity="2.3372161388397217e-01" nType="-99"/>
          </Node>
          <Node pos="r" depth="2" NCoef="0" IVar="1" Cut="8.2818804687500000e+04" cType="1" res="-8.7285056710243225e-02" rms="4.7850957512855530e-01" purity="3.7094792723655701e-01" nType="0">
            <Node pos="l" depth="3" NCoef="0" IVar="-1" Cut="0.0000000000000000e+00" cType="1" res="-6.7181359045207500e-03" rms="4.4536027312278748e-01" purity="2.7825534343719482e-01" nType="-99"/>
            <Node pos="r" depth="3" NCoef="0" IVar="-1" Cut="0.0000000000000000e+00" cType="1" res="-8.4367115050554276e-04" rms="4.9527987837791443e-01" purity="4.4939187169075012e-01" nType="-99"/>
          </Node>
        </Node>
        <Node pos="r" depth="1" NCoef="0" IVar="6" Cut="1.7774192810058594e+01" cType="1" res="2.1092426776885986e-01" rms="3.9375692605972290e-01" purity="7.9605549573898315e-01" nType="0">
          <Node pos="l" depth="2" NCoef="0" IVar="-1" Cut="0.0000000000000000e+00" cType="1" res="2.0283185876905918e-03" rms="4.9117767810821533e-01" purity="5.8420914411544800e-01" nType="-99"/>
          <Node pos="r" depth="2" NCoef="0" IVar="6" Cut="1.9483871459960938e+01" cType="1" res="2.4746222794055939e-01" rms="3.5807386040687561e-01" purity="8.4429037570953369e-01" nType="0">
            <Node pos="l" depth="3" NCoef="0" IVar="-1" Cut="0.0000000000000000e+00" cType="1" res="8.2501396536827087e-03" rms="4.1642406582832336e-01" purity="7.7295964956283569e-01" nType="-99"/>
            <Node pos="r" depth="3" NCoef="0" IVar="-1" Cut="0.0000000000000000e+00" cType="1" res="1.1759820394217968e-02" rms="3.0848893523216248e-01" purity="8.9270055294036865e-01" nType="-99"/>
          </Node>
        </Node>
      </Node>
    </BinaryTree>
    <BinaryTree type="DecisionTree" boostWeight="1.0000000000000000e+00" itree="18">
      <Node pos="s" depth="0" NCoef="0" IVar="6" Cut="1.6193548202514648e+01" cType="1" res="-8.1182812573388219e-04" rms="4.5703798532485962e-01" purity="4.9944490194320679e-01" nType="0">
        <Node pos="l" depth="1" NCoef="0" IVar="6" Cut="1.4064516067504883e+01" cType="1" res="-1.5752115845680237e-01" rms="4.3847548961639404e-01" purity="2.7310964465141296e-01" nType="0">
          <Node pos="l" depth="2" NCoef="0" IVar="1" Cut="1.0847992187500000e+05" cType="1" res="-2.1492707729339600e-01" rms="3.9507290720939636e-01" purity="1.9615431129932404e-01" nType="0">
            <Node pos="l" depth="3" NCoef="0" IVar="-1" Cut="0.0000000000000000e+00" cType="1" res="-1.0373753495514393e-02" rms="3.6013373732566833e-01" purity="1.5420763194561005e-01" nType="-99"/>
            <Node pos="r" depth="3" NCoef="0" IVar="-1" Cut="0.0000000000000000e+00" cType="1" res="-6.5018418245017529e-03" rms="4.4006055593490601e-01" purity="2.6403027772903442e-01" nType="-99"/>
          </Node>
          <Node pos="r" depth="2" NCoef="0" IVar="1" Cut="6.8785343750000000e+04" cType="1" res="-7.8453570604324341e-02" rms="4.8093634843826294e-01" purity="3.7910354137420654e-01" nType="0">
            <Node pos="l" depth="3" NCoef="0" IVar="-1" Cut="0.0000000000000000e+00" cType="1" res="-6.3187386840581894e-03" rms="4.4749906659126282e-01" purity="2.8288808465003967e-01" nType="-99"/>
            <Node pos="r" depth="3" NCoef="0" IVar="-1" Cut="0.0000000000000000e+00" cType="1" res="-1.5279686776921153e-03" rms="4.9283090233802795e-01" purity="4.2972117662429810e-01" nType="-99"/>
          </Node>
        </Node>
        <Node pos="r" depth="1" NCoef="0" IVar="6" Cut="1.8612903594970703e+01" cType="1" res="1.9857844710350037e-01" rms="3.9878726005554199e-01" purity="7.8742420673370361e-01" nType="0">
          <Node pos="l" depth="2" NCoef="0" IVar="1" Cut="9.7934835937500000e+04" cType="1" res="9.0075291693210602e-02" rms="4.7774502635002136e-01" purity="6.3683557510375977e-01" nType="0">
            <Node pos="l" depth="3" NCoef="0" IVar="-1" Cut="0.0000000000000000e+00" cType="1" res="7.7051494736224413e-04" rms="4.9557644128799438e-01" purity="5.5593216419219971e-01" nType="-99"/>
            <Node pos="r" depth="3" NCoef="0" IVar="-1" Cut="0.0000000000000000e+00" cType="1" res="6.4314771443605423e-03" rms="4.4932574033737183e-01" purity="7.1505498886108398e-01" nType="-99"/>
          </Node>
          <Node pos="r" depth="2" NCoef="0" IVar="6" Cut="2.2709676742553711e+01" cType="1" res="2.6321986317634583e-01" rms="3.2650765776634216e-01" purity="8.7713825702667236e-01" nType="0">
            <Node pos="l" depth="3" NCoef="0" IVar="-1" Cut="0.0000000000000000e+00" cType="1" res="1.0155545547604561e-02" rms="3.5738107562065125e-01" purity="8.4913951158523560e-01" nType="-99"/>
            <Node pos="r" depth="3" NCoef="0" IVar="-1" Cut="0.0000000000000000e+00" cType="1" res="1.3658286072313786e-02" rms="2.1888336539268494e-01" purity="9.4950824975967407e-01" nType="-99"/>
          </Node>
        </Node>
      </Node>
    </BinaryTree>
    <BinaryTree type="DecisionTree" boostWeight="1.0000000000000000e+00" itree="19">
      <Node pos="s" depth="0" NCoef="0" IVar="6" Cut="1.7000000000000000e+01" cType="1" res="2.1788817830383778e-03" rms="4.5519852638244629e-01" purity="5.0226449966430664e-01" nType="0">
        <Node pos="l" depth="1" NCoef="0" IVar="6" Cut="1.4064516067504883e+01" cType="1" res="-1.5295653045177460e-01" rms="4.3932095170021057e-01" purity="2.7509772777557373e-01" nType="0">
          <Node pos="l" depth="2" NCoef="0" IVar="10" Cut="2.9322414398193359e+00" cType="1" res="-2.0943565666675568e-01" rms="3.9662313461303711e-01" purity="1.9799108803272247e-01" nType="0">
            <Node pos="l" depth="3" NCoef="0" IVar="-1" Cut="0.0000000000000000e+00" cType="1" res="-1.0007735341787338e-02" rms="3.6888110637664795e-01" purity="1.6380497813224792e-01" nType="-99"/>
            <Node pos="r" depth="3" NCoef="0" IVar="-1" Cut="0.0000000000000000e+00" cType="1" res="-6.3114641234278679e-03" rms="4.3635249137878418e-01" purity="2.5930073857307434e-01" nType="-99"/>
          </Node>
          <Node pos="r" depth="2" NCoef="0" IVar="10" Cut="2.2160103321075439e+00" cType="1" res="-7.7520146965980530e-02" rms="4.8033848404884338e-01" purity="3.7808531522750854e-01" nType="0">
            <Node pos="l" depth="3" NCoef="0" IVar="-1" Cut="0.0000000000000000e+00" cType="1" res="-6.3989502377808094e-03" rms="4.5179316401481628e-01" purity="2.9504874348640442e-01" nType="-99"/>
            <Node pos="r" depth="3" NCoef="0" IVar="-1" Cut="0.0000000000000000e+00" cType="1" res="-1.1988594196736813e-03" rms="4.9025389552116394e-01" purity="4.2730623483657837e-01" nType="-99"/>
          </Node>
        </Node>
        <Node pos="r" depth="1" NCoef="0" IVar="6" Cut="1.8548387527465820e+01" cType="1" res="2.0283301174640656e-01" rms="3.9266413450241089e-01" purity="7.9608488082885742e-01" nType="0">
          <Node pos="l" depth="2" NCoef="0" IVar="6" Cut="1.7032258987426758e+01" cType="1" res="1.0844340175390244e-01" rms="4.7140508890151978e-01" purity="6.5699368715286255e-01" nType="0">
            <Node pos="l" depth="3" NCoef="0" IVar="-1" Cut="0.0000000000000000e+00" cType="1" res="2.1159022580832243e-03" rms="4.9016529321670532e-01" purity="5.8922201395034790e-01" nType="-99"/>
            <Node pos="r" depth="3" NCoef="0" IVar="-1" Cut="0.0000000000000000e+00" cType="1" res="6.6776322200894356e-03" rms="4.4484701752662659e-01" purity="7.2489690780639648e-01" nType="-99"/>
          </Node>
          <Node pos="r" depth="2" NCoef="0" IVar="6" Cut="2.2548387527465820e+01" cType="1" res="2.5715258717536926e-01" rms="3.2703644037246704e-01" purity="8.7612944841384888e-01" nType="0">
            <Node pos="l" depth="3" NCoef="0" IVar="-1" Cut="0.0000000000000000e+00" cType="1" res="9.8340120166540146e-03" rms="3.6080068349838257e-01" purity="8.4511214494705200e-01" nType="-99"/>
            <Node pos="r" depth="3" NCoef="0" IVar="-1" Cut="0.0000000000000000e+00" cType="1" res="1.3808401301503181e-02" rms="2.0285834372043610e-01" purity="9.5697015523910522e-01" nType="-99"/>
          </Node>
        </Node>
      </Node>
    </BinaryTree>
    <BinaryTree type="DecisionTree" boostWeight="1.0000000000000000e+00" itree="20">
      <Node pos="s" depth="0" NCoef="0" IVar="6" Cut="1.6193548202514648e+01" cType="1" res="-4.2626708745956421e-03" rms="4.5360523462295532e-01" purity="4.9569693207740784e-01" nType="0">
        <Node pos="l" depth="1" NCoef="0" IVar="6" Cut="1.4064516067504883e+01" cType="1" res="-1.5541538596153259e-01" rms="4.3555614352226257e-01" purity="2.6876288652420044e-01" nType="0">
          <Node pos="l" depth="2" NCoef="0" IVar="10" Cut="3.3040547370910645e+00" cType="1" res="-2.0960845053195953e-01" rms="3.9270514249801636e-01" purity="1.9318756461143494e-01" nType="0">
            <Node pos="l" depth="3" NCoef="0" IVar="-1" Cut="0.0000000000000000e+00" cType="1" res="-9.7417496144771576e-03" rms="3.7122541666030884e-01" purity="1.6661900281906128e-01" nType="-99"/>
            <Node pos="r" depth="3" NCoef="0" IVar="-1" Cut="0.0000000000000000e+00" cType="1" res="-5.3835543803870678e-03" rms="4.4714602828025818e-01" purity="2.8052753210067749e-01" nType="-99"/>
          </Node>
          <Node pos="r" depth="2" NCoef="0" IVar="1" Cut="8.2960234375000000e+04" cType="1" res="-8.0901756882667542e-02" rms="4.7845461964607239e-01" purity="3.7267637252807617e-01" nType="0">
            <Node pos="l" depth="3" NCoef="0" IVar="-1" Cut="0.0000000000000000e+00" cType="1" res="-6.4602456986904144e-03" rms="4.4512265920639038e-01" purity="2.7792334556579590e-01" nType="-99"/>
            <Node pos="r" depth="3" NCoef="0" IVar="-1" Cut="0.0000000000000000e+00" cType="1" res="-6.2040210468694568e-04" rms="4.9542924761772156e-01" purity="4.5242893695831299e-01" nType="-99"/>
          </Node>
        </Node>
        <Node pos="r" depth="1" NCoef="0" IVar="6" Cut="1.7806451797485352e+01" cType="1" res="1.8971492350101471e-01" rms="3.9925631880760193e-01" purity="7.8692644834518433e-01" nType="0">
          <Node pos="l" depth="2" NCoef="0" IVar="-1" Cut="0.0000000000000000e+00" cType="1" res="1.3532694429159164e-03" rms="4.9338495731353760e-01" purity="5.7143723964691162e-01" nType="-99"/>
          <Node pos="r" depth="2" NCoef="0" IVar="6" Cut="2.1096775054931641e+01" cType="1" res="2.2550675272941589e-01" rms="3.6506411433219910e-01" purity="8.3633613586425781e-01" nType="0">
            <Node pos="l" depth="3" NCoef="0" IVar="-1" Cut="0.0000000000000000e+00" cType="1" res="8.0719273537397385e-03" rms="4.0501895546913147e-01" purity="7.9027658700942993e-01" nType="-99"/>
            <Node pos="r" depth="3" NCoef="0" IVar="-1" Cut="0.0000000000000000e+00" cType="1" res="1.2802963145077229e-02" rms="2.4415048956871033e-01" purity="9.3628144264221191e-01" nType="-99"/>
          </Node>
        </Node>
      </Node>
    </BinaryTree>
    <BinaryTree type="DecisionTree" boostWeight="1.0000000000000000e+00" itree="21">
      <Node pos="s" depth="0" NCoef="0" IVar="6" Cut="1.6193548202514648e+01" cType="1" res="2.7678543701767921e-03" rms="4.5201808214187622e-01" purity="5.0349605083465576e-01" nType="0">
        <Node pos="l" depth="1" NCoef="0" IVar="6" Cut="1.5032258033752441e+01" cType="1" res="-1.4719684422016144e-01" rms="4.3862956762313843e-01" purity="2.7473556995391846e-01" nType="0">
          <Node pos="l" depth="2" NCoef="0" IVar="10" Cut="5.1747393608093262e+00" cType="1" res="-1.7587858438491821e-01" rms="4.1974687576293945e-01" purity="2.3508609831333160e-01" nType="0">
            <Node pos="l" depth="3" NCoef="0" IVar="-1" Cut="0.0000000000000000e+00" cType="1" res="-8.0578401684761047e-03" rms="4.0673282742500305e-01" purity="2.1450644731521606e-01" nType="-99"/>
            <Node pos="r" depth="3" NCoef="0" IVar="-1" Cut="0.0000000000000000e+00" cType="1" res="-2.2639515809714794e-03" rms="4.7930452227592468e-01" purity="3.6965590715408325e-01" nType="-99"/>
          </Node>
          <Node pos="r" depth="2" NCoef="0" IVar="-1" Cut="0.0000000000000000e+00" cType="1" res="-6.1510608065873384e-04" rms="4.9573051929473877e-01" purity="4.5704820752143860e-01" nType="-99"/>
        </Node>
        <Node pos="r" depth="1" NCoef="0" IVar="6" Cut="1.8612903594970703e+01" cType="1" res="1.9444207847118378e-01" rms="3.9252761006355286e-01" purity="7.9588150978088379e-01" nType="0">
          <Node pos="l" depth="2" NCoef="0" IVar="10" Cut="2.5987045764923096e+00" cType="1" res="1.0535019636154175e-01" rms="4.7060853242874146e-01" purity="6.5834552049636841e-01" nType="0">
            <Node pos="l" depth="3" NCoef="0" IVar="-1" Cut="0.0000000000000000e+00" cType="1" res="1.8864268204197288e-03" rms="4.8742392659187317e-01" purity="5.9579396247863770e-01" nType="-99"/>
            <Node pos="r" depth="3" NCoef="0" IVar="-1" Cut="0.0000000000000000e+00" cType="1" res="6.2957801856100559e-03" rms="4.4987863302230835e-01" purity="7.1143561601638794e-01" nType="-99"/>
          </Node>
          <Node pos="r" depth="2" NCoef="0" IVar="8" Cut="1.3925604820251465e+00" cType="1" res="2.4493537843227386e-01" rms="3.2989940047264099e-01" purity="8.7383073568344116e-01" nType="0">
            <Node pos="l" depth="3" NCoef="0" IVar="-1" Cut="0.0000000000000000e+00" cType="1" res="7.5995004735887051e-03" rms="3.9432451128959656e-01" purity="8.0494439601898193e-01" nType="-99"/>
            <Node pos="r" depth="3" NCoef="0" IVar="-1" Cut="0.0000000000000000e+00" cType="1" res="1.1318197473883629e-02" rms="3.0696552991867065e-01" purity="8.9300000667572021e-01" nType="-99"/>
          </Node>
        </Node>
      </Node>
    </BinaryTree>
    <BinaryTree type="DecisionTree" boostWeight="1.0000000000000000e+00" itree="22">
      <Node pos="s" depth="0" NCoef="0" IVar="6" Cut="1.6193548202514648e+01" cType="1" res="-1.8168713431805372e-03" rms="4.5025542378425598e-01" purity="4.9819764494895935e-01" nType="0">
        <Node pos="l" depth="1" NCoef="0" IVar="6" Cut="1.4064516067504883e+01" cType="1" res="-1.4784961938858032e-01" rms="4.3600013852119446e-01" purity="2.7052709460258484e-01" nType="0">
          <Node pos="l" depth="2" NCoef="0" IVar="1" Cut="6.7749273437500000e+04" cType="1" res="-2.0048421621322632e-01" rms="3.9370790123939514e-01" purity="1.9470082223415375e-01" nType="0">
            <Node pos="l" depth="3" NCoef="0" IVar="-1" Cut="0.0000000000000000e+00" cType="1" res="-1.0675282217562199e-02" rms="3.3601334691047668e-01" purity="1.3045980036258698e-01" nType="-99"/>
            <Node pos="r" depth="3" NCoef="0" IVar="-1" Cut="0.0000000000000000e+00" cType="1" res="-7.0751854218542576e-03" rms="4.2105165123939514e-01" purity="2.3249876499176025e-01" nType="-99"/>
          </Node>
          <Node pos="r" depth="2" NCoef="0" IVar="1" Cut="6.7755437500000000e+04" cType="1" res="-7.5698316097259521e-02" rms="4.7874227166175842e-01" purity="3.7446948885917664e-01" nType="0">
            <Node pos="l" depth="3" NCoef="0" IVar="-1" Cut="0.0000000000000000e+00" cType="1" res="-6.4758751541376114e-03" rms="4.4100812077522278e-01" purity="2.6988282799720764e-01" nType="-99"/>
            <Node pos="r" depth="3" NCoef="0" IVar="-1" Cut="0.0000000000000000e+00" cType="1" res="-1.3166952412575483e-03" rms="4.9179613590240479e-01" purity="4.2894080281257629e-01" nType="-99"/>
          </Node>
        </Node>
        <Node pos="r" depth="1" NCoef="0" IVar="6" Cut="1.8612903594970703e+01" cType="1" res="1.8536190688610077e-01" rms="3.9566823840141296e-01" purity="7.9001641273498535e-01" nType="0">
          <Node pos="l" depth="2" NCoef="0" IVar="1" Cut="9.4416046875000000e+04" cType="1" res="8.7505236268043518e-02" rms="4.7567614912986755e-01" purity="6.4275509119033813e-01" nType="0">
            <Node pos="l" depth="3" NCoef="0" IVar="-1" Cut="0.0000000000000000e+00" cType="1" res="1.0141051607206464e-03" rms="4.9340966343879700e-01" purity="5.6832772493362427e-01" nType="-99"/>
            <Node pos="r" depth="3" NCoef="0" IVar="-1" Cut="0.0000000000000000e+00" cType="1" res="5.7960548438131809e-03" rms="4.5251178741455078e-01" purity="7.0809835195541382e-01" nType="-99"/>
          </Node>
          <Node pos="r" depth="2" NCoef="0" IVar="6" Cut="1.9741935729980469e+01" cType="1" res="2.4280577898025513e-01" rms="3.2666260004043579e-01" purity="8.7646186351776123e-01" nType="0">
            <Node pos="l" depth="3" NCoef="0" IVar="-1" Cut="0.0000000000000000e+00" cType="1" res="7.8330505639314651e-03" rms="4.0001010894775391e-01" purity="7.9932773113250732e-01" nType="-99"/>
            <Node pos="r" depth="3" NCoef="0" IVar="-1" Cut="0.0000000000000000e+00" cType="1" res="1.1355882510542870e-02" rms="2.9661792516708374e-01" purity="9.0153044462203979e-01" nType="-99"/>
          </Node>
        </Node>
      </Node>
    </BinaryTree>
    <BinaryTree type="DecisionTree" boostWeight="1.0000000000000000e+00" itree="23">
      <Node pos="s" depth="0" NCoef="0" IVar="6" Cut="1.8000000000000000e+01" cType="1" res="4.3183648958802223e-03" rms="4.4757345318794250e-01" purity="5.0370407104492188e-01" nType="0">
        <Node pos="l" depth="1" NCoef="0" IVar="6" Cut="1.5193548202514648e+01" cType="1" res="-1.1970119923353195e-01" rms="4.4818773865699768e-01" purity="3.1166604161262512e-01" nType="0">
          <Node pos="l" depth="2" NCoef="0" IVar="1" Cut="1.0765735156250000e+05" cType="1" res="-1.7151841521263123e-01" rms="4.1728466749191284e-01" purity="2.3206432163715363e-01" nType="0">
            <Node pos="l" depth="3" NCoef="0" IVar="-1" Cut="0.0000000000000000e+00" cType="1" res="-8.8552953675389290e-03" rms="3.8366276025772095e-01" purity="1.8281038105487823e-01" nType="-99"/>
            <Node pos="r" depth="3" NCoef="0" IVar="-1" Cut="0.0000000000000000e+00" cType="1" res="-4.5518917031586170e-03" rms="4.5775485038757324e-01" purity="3.0804473161697388e-01" nType="-99"/>
          </Node>
          <Node pos="r" depth="2" NCoef="0" IVar="1" Cut="1.0132016406250000e+05" cType="1" res="1.4757134951651096e-02" rms="4.9520441889762878e-01" purity="5.1822125911712646e-01" nType="0">
            <Node pos="l" depth="3" NCoef="0" IVar="-1" Cut="0.0000000000000000e+00" cType="1" res="-1.9288349431008101e-03" rms="4.9479797482490540e-01" purity="4.4294947385787964e-01" nType="-99"/>
            <Node pos="r" depth="3" NCoef="0" IVar="-1" Cut="0.0000000000000000e+00" cType="1" res="3.4930258989334106e-03" rms="4.8578107357025146e-01" purity="6.0472249984741211e-01" nType="-99"/>
          </Node>
        </Node>
        <Node pos="r" depth="1" NCoef="0" IVar="6" Cut="2.0225807189941406e+01" cType="1" res="2.3094660043716431e-01" rms="3.4619325399398804e-01" purity="8.5462641716003418e-01" nType="0">
          <Node pos="l" depth="2" NCoef="0" IVar="4" Cut="3.3925878906250000e+04" cType="1" res="1.9153964519500732e-01" rms="4.0117454528808594e-01" purity="7.9408758878707886e-01" nType="0">
            <Node pos="l" depth="3" NCoef="0" IVar="-1" Cut="0.0000000000000000e+00" cType="1" res="6.8197259679436684e-03" rms="4.2046198248863220e-01" purity="7.6516461372375488e-01" nType="-99"/>
            <Node pos="r" depth="3" NCoef="0" IVar="-1" Cut="0.0000000000000000e+00" cType="1" res="1.0052870959043503e-02" rms="3.6114811897277832e-01" purity="8.4295415878295898e-01" nType="-99"/>
          </Node>
          <Node pos="r" depth="2" NCoef="0" IVar="6" Cut="2.2290323257446289e+01" cType="1" res="2.8135704994201660e-01" rms="2.5051346421241760e-01" purity="9.3206948041915894e-01" nType="0">
            <Node pos="l" depth="3" NCoef="0" IVar="-1" Cut="0.0000000000000000e+00" cType="1" res="1.1347663588821888e-02" rms="2.9666429758071899e-01" purity="9.0230548381805420e-01" nType="-99"/>
            <Node pos="r" depth="3" NCoef="0" IVar="-1" Cut="0.0000000000000000e+00" cType="1" res="1.3479534536600113e-02" rms="1.8968391418457031e-01" purity="9.6260058879852295e-01" nType="-99"/>
          </Node>
        </Node>
      </Node>
    </BinaryTree>
    <BinaryTree type="DecisionTree" boostWeight="1.0000000000000000e+00" itree="24">
      <Node pos="s" depth="0" NCoef="0" IVar="6" Cut="1.7225807189941406e+01" cType="1" res="-4.1912565939128399e-03" rms="4.4594404101371765e-01" purity="4.9456661939620972e-01" nType="0">
        <Node pos="l" depth="1" NCoef="0" IVar="6" Cut="1.5193548202514648e+01" cType="1" res="-1.2630315124988556e-01" rms="4.4438633322715759e-01" purity="3.0266565084457397e-01" nType="0">
          <Node pos="l" depth="2" NCoef="0" IVar="10" Cut="4.9254708290100098e+00" cType="1" res="-1.7331740260124207e-01" rms="4.1434565186500549e-01" purity="2.2721597552299500e-01" nType="0">
            <Node pos="l" depth="3" NCoef="0" IVar="-1" Cut="0.0000000000000000e+00" cType="1" res="-8.0338092520833015e-03" rms="4.0054422616958618e-01" purity="2.0611937344074249e-01" nType="-99"/>
            <Node pos="r" depth="3" NCoef="0" IVar="-1" Cut="0.0000000000000000e+00" cType="1" res="-2.1530664525926113e-03" rms="4.7699660062789917e-01" purity="3.6374226212501526e-01" nType="-99"/>
          </Node>
          <Node pos="r" depth="2" NCoef="0" IVar="1" Cut="9.7870750000000000e+04" cType="1" res="-6.5551362931728363e-03" rms="4.9316924810409546e-01" purity="4.9484029412269592e-01" nType="0">
            <Node pos="l" depth="3" NCoef="0" IVar="-1" Cut="0.0000000000000000e+00" cType="1" res="-3.2029820140451193e-03" rms="4.8616793751716614e-01" purity="4.0591973066329956e-01" nType="-99"/>
            <Node pos="r" depth="3" NCoef="0" IVar="-1" Cut="0.0000000000000000e+00" cType="1" res="3.0107959173619747e-03" rms="4.8815703392028809e-01" purity="5.9392493963241577e-01" nType="-99"/>
          </Node>
        </Node>
        <Node pos="r" depth="1" NCoef="0" IVar="6" Cut="1.9548387527465820e+01" cType="1" res="2.2156219184398651e-01" rms="3.5056847333908081e-01" purity="8.4934210777282715e-01" nType="0">
          <Node pos="l" depth="2" NCoef="0" IVar="10" Cut="2.7161653041839600e+00" cType="1" res="1.6515845060348511e-01" rms="4.2274525761604309e-01" purity="7.6098024845123291e-01" nType="0">
            <Node pos="l" depth="3" NCoef="0" IVar="-1" Cut="0.0000000000000000e+00" cType="1" res="5.2326810546219349e-03" rms="4.4535839557647705e-01" purity="7.1868920326232910e-01" nType="-99"/>
            <Node pos="r" depth="3" NCoef="0" IVar="-1" Cut="0.0000000000000000e+00" cType="1" res="8.4861135110259056e-03" rms="3.9571762084960938e-01" purity="8.0225396156311035e-01" nType="-99"/>
          </Node>
          <Node pos="r" depth="2" NCoef="0" IVar="4" Cut="2.9727990234375000e+04" cType="1" res="2.6173362135887146e-01" rms="2.8154283761978149e-01" purity="9.1227447986602783e-01" nType="0">
            <Node pos="l" depth="3" NCoef="0" IVar="-1" Cut="0.0000000000000000e+00" cType="1" res="1.0551529936492443e-02" rms="3.1092932820320129e-01" purity="8.9030152559280396e-01" nType="-99"/>
            <Node pos="r" depth="3" NCoef="0" IVar="-1" Cut="0.0000000000000000e+00" cType="1" res="1.2278351001441479e-02" rms="2.5510653853416443e-01" purity="9.2932599782943726e-01" nType="-99"/>
          </Node>
        </Node>
      </Node>
    </BinaryTree>
    <BinaryTree type="DecisionTree" boostWeight="1.0000000000000000e+00" itree="25">
      <Node pos="s" depth="0" NCoef="0" IVar="6" Cut="1.6193548202514648e+01" cType="1" res="7.9056434333324432e-03" rms="4.4581422209739685e-01" purity="5.0923115015029907e-01" nType="0">
        <Node pos="l" depth="1" NCoef="0" IVar="6" Cut="1.4064516067504883e+01" cType="1" res="-1.3071776926517487e-01" rms="4.3961527943611145e-01" purity="2.7939304709434509e-01" nType="0">
          <Node pos="l" depth="2" NCoef="0" IVar="10" Cut="2.4261789321899414e+00" cType="1" res="-1.8222849071025848e-01" rms="3.9924350380897522e-01" purity="2.0234450697898865e-01" nType="0">
            <Node pos="l" depth="3" NCoef="0" IVar="-1" Cut="0.0000000000000000e+00" cType="1" res="-9.5641212537884712e-03" rms="3.5934498906135559e-01" purity="1.5385045111179352e-01" nType="-99"/>
            <Node pos="r" depth="3" NCoef="0" IVar="-1" Cut="0.0000000000000000e+00" cType="1" res="-6.2008351087570190e-03" rms="4.2598450183868408e-01" purity="2.4204599857330322e-01" nType="-99"/>
          </Node>
          <Node pos="r" depth="2" NCoef="0" IVar="1" Cut="6.7791101562500000e+04" cType="1" res="-6.1092656105756760e-02" rms="4.8021158576011658e-01" purity="3.8353666663169861e-01" nType="0">
            <Node pos="l" depth="3" NCoef="0" IVar="-1" Cut="0.0000000000000000e+00" cType="1" res="-6.0169603675603867e-03" rms="4.4196251034736633e-01" purity="2.7285829186439514e-01" nType="-99"/>
            <Node pos="r" depth="3" NCoef="0" IVar="-1" Cut="0.0000000000000000e+00" cType="1" res="-6.3734588911756873e-04" rms="4.9343073368072510e-01" purity="4.4246312975883484e-01" nType="-99"/>
          </Node>
        </Node>
        <Node pos="r" depth="1" NCoef="0" IVar="6" Cut="1.8612903594970703e+01" cType="1" res="1.8194907903671265e-01" rms="3.8887512683868408e-01" purity="7.9779577255249023e-01" nType="0">
          <Node pos="l" depth="2" NCoef="0" IVar="10" Cut="2.6933817863464355e+00" cType="1" res="9.1695986688137054e-02" rms="4.7207400202751160e-01" purity="6.5267312526702881e-01" nType="0">
            <Node pos="l" depth="3" NCoef="0" IVar="-1" Cut="0.0000000000000000e+00" cType="1" res="1.7048233421519399e-03" rms="4.8672470450401306e-01" purity="5.9751254320144653e-01" nType="-99"/>
            <Node pos="r" depth="3" NCoef="0" IVar="-1" Cut="0.0000000000000000e+00" cType="1" res="5.6675644591450691e-03" rms="4.5269083976745605e-01" purity="7.0509189367294312e-01" nType="-99"/>
          </Node>
          <Node pos="r" depth="2" NCoef="0" IVar="6" Cut="2.2709676742553711e+01" cType="1" res="2.3486414551734924e-01" rms="3.1882864236831665e-01" purity="8.8288068771362305e-01" nType="0">
            <Node pos="l" depth="3" NCoef="0" IVar="-1" Cut="0.0000000000000000e+00" cType="1" res="9.3629304319620132e-03" rms="3.5096430778503418e-01" purity="8.5486340522766113e-01" nType="-99"/>
            <Node pos="r" depth="3" NCoef="0" IVar="-1" Cut="0.0000000000000000e+00" cType="1" res="1.2898386456072330e-02" rms="2.0520694553852081e-01" purity="9.5593076944351196e-01" nType="-99"/>
          </Node>
        </Node>
      </Node>
    </BinaryTree>
    <BinaryTree type="DecisionTree" boostWeight="1.0000000000000000e+00" itree="26">
      <Node pos="s" depth="0" NCoef="0" IVar="6" Cut="1.6193548202514648e+01" cType="1" res="8.1275627017021179e-03" rms="4.4394385814666748e-01" purity="5.0885260105133057e-01" nType="0">
        <Node pos="l" depth="1" NCoef="0" IVar="6" Cut="1.4064516067504883e+01" cType="1" res="-1.2904867529869080e-01" rms="4.3937662243843079e-01" purity="2.7872616052627563e-01" nType="0">
          <Node pos="l" depth="2" NCoef="0" IVar="1" Cut="1.0847992187500000e+05" cType="1" res="-1.7600166797637939e-01" rms="4.0111497044563293e-01" purity="2.0499566197395325e-01" nType="0">
            <Node pos="l" depth="3" NCoef="0" IVar="-1" Cut="0.0000000000000000e+00" cType="1" res="-8.9030526578426361e-03" rms="3.6881056427955627e-01" purity="1.6387014091014862e-01" nType="-99"/>
            <Node pos="r" depth="3" NCoef="0" IVar="-1" Cut="0.0000000000000000e+00" cType="1" res="-5.3689186461269855e-03" rms="4.4091573357582092e-01" purity="2.6669120788574219e-01" nType="-99"/>
          </Node>
          <Node pos="r" depth="2" NCoef="0" IVar="1" Cut="8.2854476562500000e+04" cType="1" res="-6.6326647996902466e-02" rms="4.7867706418037415e-01" purity="3.7721878290176392e-01" nType="0">
            <Node pos="l" depth="3" NCoef="0" IVar="-1" Cut="0.0000000000000000e+00" cType="1" res="-5.5942498147487640e-03" rms="4.4840788841247559e-01" purity="2.8496110439300537e-01" nType="-99"/>
            <Node pos="r" depth="3" NCoef="0" IVar="-1" Cut="0.0000000000000000e+00" cType="1" res="-4.0485759382136166e-04" rms="4.9465879797935486e-01" purity="4.5167988538742065e-01" nType="-99"/>
          </Node>
        </Node>
        <Node pos="r" depth="1" NCoef="0" IVar="6" Cut="1.8612903594970703e+01" cType="1" res="1.8345990777015686e-01" rms="3.8399189710617065e-01" purity="8.0298960208892822e-01" nType="0">
          <Node pos="l" depth="2" NCoef="0" IVar="10" Cut="3.0439431667327881e+00" cType="1" res="9.0637229382991791e-02" rms="4.7145560383796692e-01" purity="6.5323084592819214e-01" nType="0">
            <Node pos="l" depth="3" NCoef="0" IVar="-1" Cut="0.0000000000000000e+00" cType="1" res="2.1557642612606287e-03" rms="4.8302850127220154e-01" purity="6.1130857467651367e-01" nType="-99"/>
            <Node pos="r" depth="3" NCoef="0" IVar="-1" Cut="0.0000000000000000e+00" cType="1" res="6.3910675235092640e-03" rms="4.4293823838233948e-01" purity="7.2646272182464600e-01" nType="-99"/>
          </Node>
          <Node pos="r" depth="2" NCoef="0" IVar="10" Cut="1.9077093601226807e+00" cType="1" res="2.3769149184226990e-01" rms="3.0945259332656860e-01" purity="8.9048600196838379e-01" nType="0">
            <Node pos="l" depth="3" NCoef="0" IVar="-1" Cut="0.0000000000000000e+00" cType="1" res="7.3371431790292263e-03" rms="3.8297700881958008e-01" purity="8.1628590822219849e-01" nType="-99"/>
            <Node pos="r" depth="3" NCoef="0" IVar="-1" Cut="0.0000000000000000e+00" cType="1" res="1.1503193527460098e-02" rms="2.7875605225563049e-01" purity="9.1377466917037964e-01" nType="-99"/>
          </Node>
        </Node>
      </Node>
    </BinaryTree>
    <BinaryTree type="DecisionTree" boostWeight="1.0000000000000000e+00" itree="27">
      <Node pos="s" depth="0" NCoef="0" IVar="6" Cut="1.6193548202514648e+01" cType="1" res="-5.2671520970761776e-03" rms="4.4342315196990967e-01" purity="4.9473103880882263e-01" nType="0">
        <Node pos="l" depth="1" NCoef="0" IVar="6" Cut="1.4064516067504883e+01" cType="1" res="-1.3639439642429352e-01" rms="4.3311691284179688e-01" purity="2.6781529188156128e-01" nType="0">
          <Node pos="l" depth="2" NCoef="0" IVar="1" Cut="1.0847992187500000e+05" cType="1" res="-1.8533030152320862e-01" rms="3.9091163873672485e-01" purity="1.9165214896202087e-01" nType="0">
            <Node pos="l" depth="3" NCoef="0" IVar="-1" Cut="0.0000000000000000e+00" cType="1" res="-9.2828916385769844e-03" rms="3.5729566216468811e-01" purity="1.5164650976657867e-01" nType="-99"/>
            <Node pos="r" depth="3" NCoef="0" IVar="-1" Cut="0.0000000000000000e+00" cType="1" res="-5.7751475833356380e-03" rms="4.3438783288002014e-01" purity="2.5463989377021790e-01" nType="-99"/>
          </Node>
          <Node pos="r" depth="2" NCoef="0" IVar="1" Cut="1.0157121875000000e+05" cType="1" res="-6.8241700530052185e-02" rms="4.7754156589508057e-01" purity="3.7388715147972107e-01" nType="0">
            <Node pos="l" depth="3" NCoef="0" IVar="-1" Cut="0.0000000000000000e+00" cType="1" res="-4.8443526029586792e-03" rms="4.5697912573814392e-01" purity="3.0623903870582581e-01" nType="-99"/>
            <Node pos="r" depth="3" NCoef="0" IVar="-1" Cut="0.0000000000000000e+00" cType="1" res="-2.8694680077023804e-04" rms="4.9484014511108398e-01" purity="4.5696237683296204e-01" nType="-99"/>
          </Node>
        </Node>
        <Node pos="r" depth="1" NCoef="0" IVar="6" Cut="1.9419355392456055e+01" cType="1" res="1.6455656290054321e-01" rms="3.9650380611419678e-01" purity="7.8861099481582642e-01" nType="0">
          <Node pos="l" depth="2" NCoef="0" IVar="10" Cut="1.9626044034957886e+00" cType="1" res="1.0458538681268692e-01" rms="4.5707619190216064e-01" purity="6.9077551364898682e-01" nType="0">
            <Node pos="l" depth="3" NCoef="0" IVar="-1" Cut="0.0000000000000000e+00" cType="1" res="1.2305858545005322e-03" rms="4.8536533117294312e-01" purity="6.0979151725769043e-01" nType="-99"/>
            <Node pos="r" depth="3" NCoef="0" IVar="-1" Cut="0.0000000000000000e+00" cType="1" res="5.4035102948546410e-03" rms="4.4412335753440857e-01" purity="7.1844422817230225e-01" nType="-99"/>
          </Node>
          <Node pos="r" depth="2" NCoef="0" IVar="3" Cut="1.5188978125000000e+05" cType="1" res="2.2944970428943634e-01" rms="3.0523043870925903e-01" purity="8.9447599649429321e-01" nType="0">
            <Node pos="l" depth="3" NCoef="0" IVar="-1" Cut="0.0000000000000000e+00" cType="1" res="8.6495494470000267e-03" rms="3.4807029366493225e-01" purity="8.5644727945327759e-01" nType="-99"/>
            <Node pos="r" depth="3" NCoef="0" IVar="-1" Cut="0.0000000000000000e+00" cType="1" res="1.1548735201358795e-02" rms="2.6581373810768127e-01" purity="9.2271333932876587e-01" nType="-99"/>
          </Node>
        </Node>
      </Node>
    </BinaryTree>
    <BinaryTree type="DecisionTree" boostWeight="1.0000000000000000e+00" itree="28">
      <Node pos="s" depth="0" NCoef="0" IVar="6" Cut="1.7000000000000000e+01" cType="1" res="-1.6307247278746217e-04" rms="4.4181901216506958e-01" purity="5.0037640333175659e-01" nType="0">
        <Node pos="l" depth="1" NCoef="0" IVar="6" Cut="1.4064516067504883e+01" cType="1" res="-1.2995304167270660e-01" rms="4.3506935238838196e-01" purity="2.7191382646560669e-01" nType="0">
          <Node pos="l" depth="2" NCoef="0" IVar="1" Cut="1.0008164843750000e+05" cType="1" res="-1.7879830300807953e-01" rms="3.9313116669654846e-01" purity="1.9462491571903229e-01" nType="0">
            <Node pos="l" depth="3" NCoef="0" IVar="-1" Cut="0.0000000000000000e+00" cType="1" res="-9.2627611011266708e-03" rms="3.5429832339286804e-01" purity="1.4839072525501251e-01" nType="-99"/>
            <Node pos="r" depth="3" NCoef="0" IVar="-1" Cut="0.0000000000000000e+00" cType="1" res="-5.5403313599526882e-03" rms="4.3553945422172546e-01" purity="2.5680306553840637e-01" nType="-99"/>
          </Node>
          <Node pos="r" depth="2" NCoef="0" IVar="1" Cut="8.2854476562500000e+04" cType="1" res="-6.2550537288188934e-02" rms="4.7893527150154114e-01" purity="3.7856635451316833e-01" nType="0">
            <Node pos="l" depth="3" NCoef="0" IVar="-1" Cut="0.0000000000000000e+00" cType="1" res="-5.0886464305222034e-03" rms="4.5218563079833984e-01" purity="2.9306557774543762e-01" nType="-99"/>
            <Node pos="r" depth="3" NCoef="0" IVar="-1" Cut="0.0000000000000000e+00" cType="1" res="-5.7440181262791157e-04" rms="4.9384668469429016e-01" purity="4.4646126031875610e-01" nType="-99"/>
          </Node>
        </Node>
        <Node pos="r" depth="1" NCoef="0" IVar="6" Cut="1.7774192810058594e+01" cType="1" res="1.6587589681148529e-01" rms="3.9199057221412659e-01" purity="7.9264622926712036e-01" nType="0">
          <Node pos="l" depth="2" NCoef="0" IVar="-1" Cut="0.0000000000000000e+00" cType="1" res="1.2517352588474751e-03" rms="4.9146738648414612e-01" purity="5.7962363958358765e-01" nType="-99"/>
          <Node pos="r" depth="2" NCoef="0" IVar="6" Cut="1.9483871459960938e+01" cType="1" res="1.9640193879604340e-01" rms="3.5877829790115356e-01" purity="8.4084451198577881e-01" nType="0">
            <Node pos="l" depth="3" NCoef="0" IVar="-1" Cut="0.0000000000000000e+00" cType="1" res="6.4131445251405239e-03" rms="4.2334911227226257e-01" purity="7.6021033525466919e-01" nType="-99"/>
            <Node pos="r" depth="3" NCoef="0" IVar="-1" Cut="0.0000000000000000e+00" cType="1" res="1.0258114896714687e-02" rms="3.0283862352371216e-01" purity="8.9634233713150024e-01" nType="-99"/>
          </Node>
        </Node>
      </Node>
    </BinaryTree>
    <BinaryTree type="DecisionTree" boostWeight="1.0000000000000000e+00" itree="29">
      <Node pos="s" depth="0" NCoef="0" IVar="6" Cut="1.7483871459960938e+01" cType="1" res="1.4302443014457822e-03" rms="4.4127875566482544e-01" purity="5.0237488746643066e-01" nType="0">
        <Node pos="l" depth="1" NCoef="0" IVar="6" Cut="1.5193548202514648e+01" cType="1" res="-1.0701491683721542e-01" rms="4.4747382402420044e-01" purity="3.1269660592079163e-01" nType="0">
          <Node pos="l" depth="2" NCoef="0" IVar="10" Cut="5.2862367630004883e+00" cType="1" res="-1.4829818904399872e-01" rms="4.2002663016319275e-01" purity="2.3743784427642822e-01" nType="0">
            <Node pos="l" depth="3" NCoef="0" IVar="-1" Cut="0.0000000000000000e+00" cType="1" res="-7.0486324839293957e-03" rms="4.0751603245735168e-01" purity="2.1695518493652344e-01" nType="-99"/>
            <Node pos="r" depth="3" NCoef="0" IVar="-1" Cut="0.0000000000000000e+00" cType="1" res="-1.2557544978335500e-03" rms="4.7930046916007996e-01" purity="3.7463751435279846e-01" nType="-99"/>
          </Node>
          <Node pos="r" depth="2" NCoef="0" IVar="1" Cut="1.0424159375000000e+05" cType="1" res="-5.6031052954494953e-03" rms="4.9421849846839905e-01" purity="4.9756878614425659e-01" nType="0">
            <Node pos="l" depth="3" NCoef="0" IVar="-1" Cut="0.0000000000000000e+00" cType="1" res="-2.4739620275795460e-03" rms="4.9212926626205444e-01" purity="4.2605105042457581e-01" nType="-99"/>
            <Node pos="r" depth="3" NCoef="0" IVar="-1" Cut="0.0000000000000000e+00" cType="1" res="2.5429462548345327e-03" rms="4.8810988664627075e-01" purity="5.8575457334518433e-01" nType="-99"/>
          </Node>
        </Node>
        <Node pos="r" depth="1" NCoef="0" IVar="6" Cut="1.9354839324951172e+01" cType="1" res="1.9783958792686462e-01" rms="3.5338187217712402e-01" purity="8.4590870141983032e-01" nType="0">
          <Node pos="l" depth="2" NCoef="0" IVar="1" Cut="9.4420976562500000e+04" cType="1" res="1.4974278211593628e-01" rms="4.2279854416847229e-01" purity="7.6013869047164917e-01" nType="0">
            <Node pos="l" depth="3" NCoef="0" IVar="-1" Cut="0.0000000000000000e+00" cType="1" res="4.3674246408045292e-03" rms="4.4995537400245667e-01" purity="7.0611232519149780e-01" nType="-99"/>
            <Node pos="r" depth="3" NCoef="0" IVar="-1" Cut="0.0000000000000000e+00" cType="1" res="7.8916708007454872e-03" rms="3.9605820178985596e-01" purity="8.0326849222183228e-01" nType="-99"/>
          </Node>
          <Node pos="r" depth="2" NCoef="0" IVar="8" Cut="1.5666772127151489e+00" cType="1" res="2.3156683146953583e-01" rms="2.9040747880935669e-01" purity="9.0605378150939941e-01" nType="0">
            <Node pos="l" depth="3" NCoef="0" IVar="-1" Cut="0.0000000000000000e+00" cType="1" res="8.5543869063258171e-03" rms="3.4517034888267517e-01" purity="8.6025851964950562e-01" nType="-99"/>
            <Node pos="r" depth="3" NCoef="0" IVar="-1" Cut="0.0000000000000000e+00" cType="1" res="1.1262205429375172e-02" rms="2.6700249314308167e-01" purity="9.2206263542175293e-01" nType="-99"/>
          </Node>
        </Node>
      </Node>
    </BinaryTree>
    <BinaryTree type="DecisionTree" boostWeight="1.0000000000000000e+00" itree="30">
      <Node pos="s" depth="0" NCoef="0" IVar="6" Cut="1.6193548202514648e+01" cType="1" res="-3.7320074625313282e-03" rms="4.3977430462837219e-01" purity="4.9646580219268799e-01" nType="0">
        <Node pos="l" depth="1" NCoef="0" IVar="10" Cut="5.6598978042602539e+00" cType="1" res="-1.2844735383987427e-01" rms="4.3353933095932007e-01" purity="2.6910549402236938e-01" nType="0">
          <Node pos="l" depth="2" NCoef="0" IVar="6" Cut="1.5032258033752441e+01" cType="1" res="-1.4771832525730133e-01" rms="4.2199572920799255e-01" purity="2.4714447557926178e-01" nType="0">
            <Node pos="l" depth="3" NCoef="0" IVar="-1" Cut="0.0000000000000000e+00" cType="1" res="-7.2830221615731716e-03" rms="4.0175014734268188e-01" purity="2.0871606469154358e-01" nType="-99"/>
            <Node pos="r" depth="3" NCoef="0" IVar="-1" Cut="0.0000000000000000e+00" cType="1" res="-1.6787096392363310e-03" rms="4.9064299464225769e-01" purity="4.2308935523033142e-01" nType="-99"/>
          </Node>
          <Node pos="r" depth="2" NCoef="0" IVar="-1" Cut="0.0000000000000000e+00" cType="1" res="6.3874106854200363e-04" rms="4.8807778954505920e-01" purity="4.3308243155479431e-01" nType="-99"/>
        </Node>
        <Node pos="r" depth="1" NCoef="0" IVar="6" Cut="1.9419355392456055e+01" cType="1" res="1.5782973170280457e-01" rms="3.9268791675567627e-01" purity="7.9099833965301514e-01" nType="0">
          <Node pos="l" depth="2" NCoef="0" IVar="10" Cut="2.6164176464080811e+00" cType="1" res="9.7883485257625580e-02" rms="4.5604094862937927e-01" purity="6.8919187784194946e-01" nType="0">
            <Node pos="l" depth="3" NCoef="0" IVar="-1" Cut="0.0000000000000000e+00" cType="1" res="1.2113589327782393e-03" rms="4.8107409477233887e-01" purity="6.1443132162094116e-01" nType="-99"/>
            <Node pos="r" depth="3" NCoef="0" IVar="-1" Cut="0.0000000000000000e+00" cType="1" res="6.6937403753399849e-03" rms="4.2258241772651672e-01" purity="7.5691860914230347e-01" nType="-99"/>
          </Node>
          <Node pos="r" depth="2" NCoef="0" IVar="6" Cut="2.2129032135009766e+01" cType="1" res="2.2325243055820465e-01" rms="2.9549977183341980e-01" purity="9.0210539102554321e-01" nType="0">
            <Node pos="l" depth="3" NCoef="0" IVar="-1" Cut="0.0000000000000000e+00" cType="1" res="9.1032413765788078e-03" rms="3.3508342504501343e-01" purity="8.7085634469985962e-01" nType="-99"/>
            <Node pos="r" depth="3" NCoef="0" IVar="-1" Cut="0.0000000000000000e+00" cType="1" res="1.2331955134868622e-02" rms="2.0406953990459442e-01" purity="9.5642107725143433e-01" nType="-99"/>
          </Node>
        </Node>
      </Node>
    </BinaryTree>
    <BinaryTree type="DecisionTree" boostWeight="1.0000000000000000e+00" itree="31">
      <Node pos="s" depth="0" NCoef="0" IVar="6" Cut="1.7000000000000000e+01" cType="1" res="3.0097928829491138e-03" rms="4.3806588649749756e-01" purity="5.0399249792098999e-01" nType="0">
        <Node pos="l" depth="1" NCoef="0" IVar="6" Cut="1.4064516067504883e+01" cType="1" res="-1.2083071470260620e-01" rms="4.3579307198524475e-01" purity="2.7408665418624878e-01" nType="0">
          <Node pos="l" depth="2" NCoef="0" IVar="1" Cut="1.0008164843750000e+05" cType="1" res="-1.6790997982025146e-01" rms="3.9458978176116943e-01" purity="1.9664210081100464e-01" nType="0">
            <Node pos="l" depth="3" NCoef="0" IVar="-1" Cut="0.0000000000000000e+00" cType="1" res="-8.6812032386660576e-03" rms="3.5974019765853882e-01" purity="1.5422645211219788e-01" nType="-99"/>
            <Node pos="r" depth="3" NCoef="0" IVar="-1" Cut="0.0000000000000000e+00" cType="1" res="-5.5338554084300995e-03" rms="4.3133595585823059e-01" purity="2.4971430003643036e-01" nType="-99"/>
          </Node>
          <Node pos="r" depth="2" NCoef="0" IVar="10" Cut="2.5400187969207764e+00" cType="1" res="-5.5797182023525238e-02" rms="4.7946548461914062e-01" purity="3.8106563687324524e-01" nType="0">
            <Node pos="l" depth="3" NCoef="0" IVar="-1" Cut="0.0000000000000000e+00" cType="1" res="-4.3525099754333496e-03" rms="4.6310770511627197e-01" purity="3.2572427392005920e-01" nType="-99"/>
            <Node pos="r" depth="3" NCoef="0" IVar="-1" Cut="0.0000000000000000e+00" cType="1" res="-4.6977572492323816e-04" rms="4.8910668492317200e-01" purity="4.2963367700576782e-01" nType="-99"/>
          </Node>
        </Node>
